tree
version=v4
num_class=1
num_tree_per_iteration=1
label_index=0
max_feature_idx=4
objective=regression
feature_names=Column_0 Column_1 Column_2 Column_3 Column_4
feature_infos=[5.98735733007:67.462917926900005] [-152.212570293:-63.246179521499997] [0:0.99430043996489059] [0:47642.469600236407] [0:24]
tree_sizes=2562 2655 2665 2665 2667 2669 2672 2666 2675 2664 2672 2674 2683 2680 2673 2681 2680 2682 2690 2692 2680 2677 2681 2694 2690 2694 2691 2694 2690 2692 2697 2703 2711 2713 2705 2710 2714 2708 2702 2712 2719 2728 2716 2721 2730 2720 2727 2719 2745 2741 2730 2733 2731 2748 2751 2732 2736 2730 2729 2732 2727 2732 2738 2739 2748 2751 2741 2744 2749 2748 2742 2753 2741 2749 2763 2742 2762 2762 2750 2755 2763 2762 2760 2762 2754 2757 2766 2772 2769 2761 2765 2765 2751 2775 2769 2780 2767 2777 2790 2779 2781 2772 2783 2790 2786 2758 2791 2780 2780 2765 2779 2771

Tree=0
num_leaves=31
num_cat=0
split_feature=0 0 0 0 0 0 3 0 3 2 0 4 0 0 4 0 3 0 0 0 0 3 0 0 4 0 2 2 3 4
split_gain=119321 29636.8 6847.1 5539.88 4399.13 1592.97 1503.68 904.3 808.734 762.812 666.012 652.027 548.045 491.328 445.014 312.205 306.937 301.941 218.672 192.91 136.099 102.281 84.9339 72.518 71.6193 65.7737 65.6986 56.5286 51.7596 43.0679
threshold=27.963129922200004 41.57483186595001 53.933681837000002 36.544603066500009 17.613470758650003 55.169829831250006 1924.9933636720277 45.866416633850008 3726.3607526100473 0.38546293710206736 32.701924662050011 2.5000000000000004 11.795549405250002 22.522029300850004 4.5000000000000009 44.005937732550009 2546.2296371717398 34.899162804800007 39.340894396250008 16.326924757350003 34.357638483400002 2410.7436062157144 39.356994788300007 14.124390622050003 7.5000000000000009 45.866416633850008 0.66442225347616291 0.063063609726252981 1164.8364013172802 7.5000000000000009
decision_type=2 2 2 2 2 2 2 2 2 2 2 2 2 2 2 2 2 2 2 2 2 2 2 2 2 2 2 2 2 2
left_child=4 3 6 9 12 8 11 -8 -4 17 -11 -3 -1 21 22 -13 -15 24 29 23 -12 -6 -5 -14 27 -17 -9 -2 -20 -16
right_child=1 2 5 14 13 -7 7 26 -10 10 20 15 19 16 18 25 -18 -19 28 -21 -22 -23 -24 -25 -26 -27 -28 -29 -30 -31
leaf_value=34.064051934268122 35.24202180532594 35.925915983580516 36.050397386107335 35.57003614421351 34.681709334439084 36.640474201656197 35.830570465400747 36.068511404014444 36.417719244450723 34.985477935210909 35.130601578804566 35.605055352039905 34.247937795920606 34.929543830142464 35.491100859251716 35.694167407956819 34.679211462841472 35.446088874500042 35.506963765572259 34.458365488959664 35.249131315473598 34.555722690137799 35.665437645135924 34.327283104652004 35.214437005502369 35.774911882267439 36.182032454357589 35.342246103128254 35.590873391018356 35.428569993839709
leaf_weight=24 24 39 43 51 24 26 54 26 23 47 36 58 46 24 38 38 25 30 34 22 74 49 43 77 41 75 25 34 40 100
leaf_count=24 24 39 43 51 24 26 54 26 23 47 36 58 46 24 38 38 25 30 34 22 74 49 43 77 41 75 25 34 40 100
internal_value=35.3415 35.6011 35.9295 35.3753 34.4505 36.309 35.8187 35.9732 36.1784 35.217 35.143 35.7414 34.2854 34.6794 35.5231 35.6994 34.8018 35.3071 35.483 34.322 35.2103 34.5971 35.6137 34.2976 35.265 35.7478 36.1242 35.3008 35.5523 35.4458
internal_weight=1290 999 407 592 291 92 315 105 66 286 157 210 169 122 306 171 49 129 212 145 110 73 94 123 99 113 51 58 74 138
internal_count=1290 999 407 592 291 92 315 105 66 286 157 210 169 122 306 171 49 129 212 145 110 73 94 123 99 113 51 58 74 138
is_linear=0
shrinkage=1


Tree=1
num_leaves=31
num_cat=0
split_feature=0 0 0 0 0 0 3 0 3 2 0 4 0 0 4 0 0 0 0 3 0 3 0 4 0 0 2 3 4 2
split_gain=107687 26747.2 6179.51 4999.75 3970.22 1437.65 1357.07 816.131 762.416 688.438 601.076 588.455 494.611 450.757 401.625 281.765 278.472 197.351 174.101 155.04 122.83 104.418 76.6528 72.6743 65.733 59.3607 59.293 46.713 39.8776 39.6171
threshold=27.963129922200004 41.57483186595001 53.933681837000002 36.544603066500009 17.613470758650003 55.169829831250006 1924.9933636720277 45.866416633850008 869.71439866889932 0.38546293710206736 32.701924662050011 2.5000000000000004 11.795549405250002 23.784380152700002 4.5000000000000009 44.005937732550009 33.916519215850009 39.340894396250008 16.326924757350003 2211.8684890252266 34.357638483400002 3806.5364896379383 39.356994788300007 7.5000000000000009 14.055695094800003 45.866416633850008 0.66442225347616291 1164.8364013172802 16.000000000000004 0.65844650938102556
decision_type=2 2 2 2 2 2 2 2 2 2 2 2 2 2 2 2 2 2 2 2 2 2 2 2 2 2 2 2 2 2
left_child=4 3 6 9 12 8 11 -8 -4 16 28 -3 -1 19 22 -13 -2 29 24 -6 -12 -10 -5 -18 -14 -17 -9 -19 -11 -16
right_child=1 2 5 14 13 -7 7 26 21 10 20 15 18 -15 17 25 23 27 -20 -21 -22 -23 -24 -25 -26 -27 -28 -29 -30 -31
leaf_value=-1.2136007328828178 -0.09304892095652495 0.55517008060064066 0.57740460586547859 0.21708426136231307 -0.60104318936665857 1.2340003820566032 0.46459185105782974 0.69063573158704328 0.84596994161605843 -0.38529255286506986 -0.20037857558992178 0.25035249529213738 -1.041577578699866 -0.48339714939529838 0.087699317556415871 0.33500894621798866 0.10536606463213122 0.15716549929450541 -0.83900291702964092 -0.7423488348180598 -0.087775327144442389 1.0056037494114467 0.30771567544271783 -0.01510195183966841 -0.96492354571819305 0.41171619542439775 0.7984807586669922 0.23687963411211968 -0.2931598385795951 0.16228376378615697
leaf_weight=24 77 39 25 51 30 26 54 26 20 23 36 58 43 37 117 38 31 34 22 55 74 21 43 21 80 75 25 40 24 21
leaf_count=24 77 39 25 51 30 26 54 26 20 23 36 58 43 37 117 38 31 34 22 55 74 21 43 21 80 75 25 40 24 21
internal_value=6.87446e-10 0.246559 0.558584 0.0320414 -0.846434 0.919089 0.453294 0.600062 0.795033 -0.118259 -0.188577 0.37991 -1.00335 -0.629067 0.172519 0.339939 -0.0326788 0.134375 -0.96855 -0.692476 -0.124627 0.927734 0.258543 0.0567155 -0.991721 0.385921 0.743501 0.200254 -0.338246 0.0990491
internal_weight=1290 999 407 592 291 92 315 105 66 286 157 210 169 122 306 171 129 212 145 85 110 41 94 52 123 113 51 74 47 138
internal_count=1290 999 407 592 291 92 315 105 66 286 157 210 169 122 306 171 129 212 145 85 110 41 94 52 123 113 51 74 47 138
is_linear=0
shrinkage=0.05


Tree=2
num_leaves=31
num_cat=0
split_feature=0 0 0 0 0 0 3 0 3 2 0 4 0 3 4 0 0 0 0 0 0 0 3 0 4 0 4 3 2 3
split_gain=97187.6 24139.3 5577 4512.27 3583.12 1297.48 1225.61 807.584 688.081 621.315 542.471 474.08 446.386 415.376 362.467 262.631 259.276 252.67 178.109 157.127 110.854 98.9742 94.2372 69.1792 63.3257 59.3739 52.032 48.7658 48.1593 42.1585
threshold=27.963129922200004 41.57483186595001 53.933681837000002 36.544603066500009 17.613470758650003 55.169829831250006 1850.2145533625646 45.866416633850008 869.71439866889932 0.38546293710206736 32.701924662050011 2.5000000000000004 11.795549405250002 2410.7436062157144 4.5000000000000009 22.522029300850004 44.005937732550009 34.899162804800007 39.340894396250008 16.326924757350003 34.357638483400002 22.936243455450001 3806.5364896379383 39.356994788300007 7.5000000000000009 14.124390622050003 16.000000000000004 3202.4277353103303 0.074409527523864899 1164.8364013172802
decision_type=2 2 2 2 2 2 2 2 2 2 2 2 2 2 2 2 2 2 2 2 2 2 2 2 2 2 2 2 2 2
left_child=4 3 6 9 12 8 11 -8 -4 17 -11 -3 -1 15 23 -6 -13 24 -16 25 -12 -15 -10 -5 28 -14 -18 -9 -2 -20
right_child=1 2 5 14 13 -7 7 27 22 10 20 16 19 21 18 -17 26 -19 29 -21 -22 -23 -24 -25 -26 -27 -28 -29 -30 -31
leaf_value=-1.1529206971327464 -0.083104322584612034 0.51896452276330252 0.54853435897827152 0.20623004337151848 -0.59677409032980611 1.1723003240732046 0.43541770055890083 0.75388639143535074 0.8036714327335357 -0.32133374930696285 -0.19035965071784125 0.23783487626190844 -0.98708025890847917 -0.71005061467488606 0.094096668483014567 -0.36033310786537504 0.39601890453651772 0.096073847388227787 0.14930722292731791 -0.79705272479490796 -0.083386564335307556 -0.58691860636075333 0.95532355989728657 0.29232990159544836 -0.11712811407519551 -0.9152849581334499 0.32603423053568065 0.65675837198893239 0.0080725347995758059 0.22503565311431886
leaf_weight=24 28 38 25 51 24 26 56 28 20 47 36 58 46 51 138 23 67 30 34 22 74 24 21 43 41 77 44 24 30 40
leaf_count=24 28 38 25 51 24 26 56 28 20 47 36 58 46 51 138 23 67 30 34 22 74 24 21 43 41 77 44 24 30 40
internal_value=-1.99548e-10 0.234231 0.530655 0.0304394 -0.804113 0.873135 0.430629 0.56717 0.755282 -0.112346 -0.179148 0.359391 -0.953183 -0.597614 0.163893 -0.481069 0.32351 -0.0310448 0.127657 -0.920123 -0.118396 -0.670648 0.881347 0.245616 -0.0695656 -0.942135 0.368277 0.709058 -0.0359439 0.190242
internal_weight=1290 999 407 592 291 92 315 108 66 286 157 207 169 122 306 47 169 129 212 145 110 75 41 94 99 123 111 52 58 74
internal_count=1290 999 407 592 291 92 315 108 66 286 157 207 169 122 306 47 169 129 212 145 110 75 41 94 99 123 111 52 58 74
is_linear=0
shrinkage=0.05


Tree=3
num_leaves=31
num_cat=0
split_feature=0 0 0 0 0 2 0 2 0 0 0 0 0 0 4 0 4 3 0 3 0 1 2 4 0 4 4 2 3 2
split_gain=87711.8 21794 4782.56 4511.28 3233.77 1480.25 744.56 560.737 489.58 478.328 464.363 422.67 402.864 375.488 328.713 233.408 228.829 145.69 141.807 124.973 100.046 98.5477 91.8533 85.92 82.5487 66.3426 64.6491 64.387 94.3688 66.2557
threshold=27.963129922200004 42.167188249350012 36.544603066500009 54.840786300950008 17.613470758650003 0.46009753328136244 45.866416633850008 0.38546293710206736 32.701924662050011 51.766054409150009 39.356994788300007 55.169829831250006 11.795549405250002 23.784380152700002 6.5000000000000009 33.916519215850009 1.5000000000000002 1840.4470127729262 16.326924757350003 2211.8684890252266 34.357638483400002 -89.89707874829999 0.32257329893112169 1.0000000180025095e-35 43.344101348650007 16.000000000000004 4.5000000000000009 0.46559706127978856 954.60363496261027 0.72600586265903377
decision_type=2 2 2 2 2 2 2 2 2 2 2 2 2 2 2 2 2 2 2 2 2 2 2 2 2 2 2 2 2 2
left_child=4 2 7 5 12 9 21 15 -9 14 16 -5 -1 19 22 -2 -4 26 -14 -6 -10 -7 -3 -8 -16 -26 -12 28 -18 -29
right_child=1 3 10 11 13 6 23 8 20 -11 17 -13 18 -15 24 -17 27 -19 -20 -21 -22 -23 -24 -25 25 -27 -28 29 -30 -31
leaf_value=-1.0952746470769248 -0.084762574519429895 0.40014267084075184 0.24195332527160646 0.81943425717561136 -0.54351675152778633 0.36199491128325462 0.78979422179135417 -0.3052670612931252 -0.18084167109595406 0.56517078558603928 0.25804655648566582 1.1136853218078613 -0.89502845547063581 -0.43478049780871419 0.21902996611595157 0.052349523075211506 0.064904394709775534 0.31412530014681267 -0.75720009045167413 -0.67038260156458085 -0.079217233770602469 0.5137518716895062 0.53084259271621714 0.67007019063259698 0.3666135768557704 0.28067181046972883 0.17591869191211815 0.045546709844428636 0.17991562848467202 0.14648296201512928
leaf_weight=24 77 41 32 23 30 20 22 47 36 30 37 26 123 37 25 52 31 43 22 55 74 23 20 47 43 47 68 72 42 21
leaf_count=24 77 41 32 23 30 20 22 47 36 30 37 26 123 37 25 52 31 43 22 55 74 23 20 47 43 47 68 72 42 21
internal_value=2.32181e-10 0.222519 0.0445564 0.528984 -0.763907 0.460171 0.606473 -0.106729 -0.170191 0.380629 0.169607 0.975567 -0.905524 -0.567733 0.349173 -0.0294926 0.119528 0.236605 -0.874117 -0.625606 -0.112476 0.443167 0.442995 0.708243 0.299406 0.321733 0.204859 0.0959277 0.131075 0.0683388
internal_weight=1290 999 632 367 291 318 112 286 157 206 346 49 169 122 176 129 198 148 145 85 110 43 61 69 115 90 105 166 73 93
internal_count=1290 999 632 367 291 318 112 286 157 206 346 49 169 122 176 129 198 148 145 85 110 43 61 69 115 90 105 166 73 93
is_linear=0
shrinkage=0.05


Tree=4
num_leaves=31
num_cat=0
split_feature=0 0 0 0 0 0 3 3 0 2 4 0 3 3 4 0 0 0 0 0 0 3 0 4 4 0 0 2 3 2
split_gain=79159.9 19687.1 4560.84 3668.47 2918.48 1050.58 1003.16 593.031 591.08 506.065 448.61 441.846 371.601 355.32 293.931 229.683 215.416 212.843 142.263 117.113 90.2911 81.9855 74.2757 59.6829 57.9532 57.5934 46.158 41.4403 39.5055 47.5216
threshold=27.963129922200004 41.57483186595001 53.933681837000002 36.544603066500009 17.613470758650003 55.169829831250006 1924.9933636720277 869.71439866889932 45.866416633850008 0.38546293710206736 2.5000000000000004 32.701924662050011 36360.942242671626 2410.7436062157144 4.5000000000000009 22.522029300850004 44.879020764200007 34.899162804800007 39.340894396250008 16.326924757350003 34.357638483400002 3806.5364896379383 22.936243455450001 3.5000000000000004 7.5000000000000009 39.356994788300007 43.344101348650007 0.074409527523864899 2723.9170551782959 0.7340511180621645
decision_type=2 2 2 2 2 2 2 2 2 2 2 2 2 2 2 2 2 2 2 2 2 2 2 2 2 2 2 2 2 2
left_child=4 3 6 9 12 7 10 -4 -8 17 -3 -11 19 15 25 -6 26 24 -16 -1 -13 -9 -15 -10 27 -5 -12 -2 29 -22
right_child=1 2 5 14 13 -7 8 21 23 11 16 20 -14 22 18 -17 -18 -19 -20 -21 28 -23 -24 -25 -26 -27 -28 -29 -30 -31
leaf_value=-0.84516633666794871 -0.074955819547176367 0.47856528514470809 0.49081497192382817 0.1853382744625503 -0.53975953261057541 1.0580011056019711 0.3995329545879806 0.72733629584312443 0.57952187359333041 -0.29000370800495151 0.20286570840411719 -0.17179958224296571 -1.016678862417898 -0.64102896148083266 0.085058256787369446 -0.31864695030709972 0.35191870301197742 0.088652679709096752 0.17098499298901171 -0.7193401163274592 -0.05708763339827138 0.86878722735813685 -0.53436114589373274 0.68788770790453313 -0.10887288795102662 0.26389815654865528 0.27335256493339938 0.0096218366051713626 -0.015226837098598482 -0.15194426956384077
leaf_weight=116 28 39 25 51 24 26 54 20 24 47 45 36 31 51 138 23 78 30 74 22 31 21 24 27 41 43 48 30 20 23
leaf_count=116 28 39 25 51 24 26 54 20 24 47 45 36 31 51 138 23 78 30 74 22 31 21 24 27 41 43 48 30 20 23
internal_value=-1.73825e-09 0.211393 0.47909 0.0273523 -0.725712 0.788801 0.388634 0.682752 0.514822 -0.101392 0.325541 -0.161681 -0.860247 -0.539346 0.147682 -0.431556 0.290641 -0.028018 0.115052 -0.825107 -0.106852 0.799787 -0.606895 0.636892 -0.0633727 0.221275 0.239246 -0.0312088 -0.0752564 -0.0974895
internal_weight=1290 999 407 592 291 92 315 66 105 286 210 157 169 122 306 47 171 129 212 138 110 41 75 51 99 94 93 58 74 54
internal_count=1290 999 407 592 291 92 315 66 105 286 210 157 169 122 306 47 171 129 212 138 110 41 75 51 99 94 93 58 74 54
is_linear=0
shrinkage=0.05


Tree=5
num_leaves=31
num_cat=0
split_feature=0 0 0 0 0 2 0 2 0 0 0 0 0 3 4 0 0 4 3 0 1 0 2 4 0 0 4 2 2 3
split_gain=71441.8 17790.5 3885.32 3682.07 2633.92 1219.65 601.458 456.724 398.766 396.339 373.864 342.439 340.291 320.677 275.89 207.289 195.61 194.182 126.774 114.168 86.1571 81.4877 76.9861 76.8503 67.0339 66.1819 58.0047 57.4458 69.071 59.1316
threshold=27.963129922200004 42.167188249350012 36.544603066500009 54.840786300950008 17.613470758650003 0.46009753328136244 45.866416633850008 0.38546293710206736 32.701924662050011 51.766054409150009 39.356994788300007 11.795549405250002 55.169829831250006 2410.7436062157144 6.5000000000000009 22.522029300850004 33.916519215850009 1.5000000000000002 1628.5004906516842 16.326924757350003 -89.89707874829999 34.357638483400002 0.32257329893112169 1.0000000180025095e-35 22.936243455450001 43.344101348650007 16.000000000000004 0.51438481343399378 0.72600586265903377 954.60363496261027
decision_type=2 2 2 2 2 2 2 2 2 2 2 2 2 2 2 2 2 2 2 2 2 2 2 2 2 2 2 2 2 2
left_child=4 2 7 5 11 9 20 16 -9 14 17 -1 -5 15 22 -6 -2 -4 -12 -13 -7 -10 -3 -8 -15 -16 -27 29 -29 -19
right_child=1 3 10 12 13 6 23 8 21 -11 18 19 -14 24 25 -17 -18 27 -20 -21 -22 -23 -24 -25 -26 26 -28 28 -30 -31
leaf_value=-0.99217818578084316 -0.077214341678402645 0.36143242324270858 0.22058875001966954 0.74107742620551065 -0.51277155131101615 0.32567198585718871 0.7169414628635753 -0.27550352076266676 -0.16320960852834915 0.5113264719645183 0.17829846024513246 -0.80704263904230378 1.005101015017583 -0.60897753706165392 0.19714850449562074 -0.30271460025206859 0.048305852618068461 0.061114336177706723 0.27481836052435749 -0.6833731001073664 0.46756824617800508 -0.071493555283224264 0.48108833432197573 0.60371263965647282 -0.50764309813578923 0.33107389128485393 0.25071390715051206 0.028625160108009973 0.13398502887714478 0.14718919636084224
leaf_weight=24 77 41 32 23 24 20 22 47 36 30 95 123 26 51 25 23 52 32 53 22 23 74 20 47 24 43 47 60 21 53
leaf_count=24 77 41 32 23 24 20 22 47 36 30 95 123 26 51 25 23 52 32 53 22 23 74 20 47 24 43 47 60 21 53
internal_value=-5.36557e-10 0.200824 0.040035 0.477714 -0.689426 0.415545 0.548346 -0.0963228 -0.153597 0.343343 0.152747 -0.817235 0.881172 -0.512379 0.31471 -0.409978 -0.0266171 0.107812 0.212863 -0.788279 0.40157 -0.10151 0.400664 0.639815 -0.576551 0.269117 0.289108 0.0860716 0.0559407 0.114785
internal_weight=1290 999 632 367 291 318 112 286 157 206 346 169 49 122 176 47 129 198 148 145 43 110 61 69 75 115 90 166 81 85
internal_count=1290 999 632 367 291 318 112 286 157 206 346 169 49 122 176 47 129 198 148 145 43 110 61 69 75 115 90 166 81 85
is_linear=0
shrinkage=0.05


Tree=6
num_leaves=31
num_cat=0
split_feature=0 0 0 0 1 2 0 2 0 0 0 3 0 0 4 0 4 0 3 1 0 0 2 0 2 4 2 3 2 4
split_gain=64476.2 16055.9 3506.5 3323.07 2382.67 1100.74 542.816 412.193 359.887 357.696 337.412 320.582 307.113 273.824 248.991 179.325 175.249 122.426 114.414 77.7568 73.5427 72.5789 69.4799 61.4088 57.2493 53.0048 52.8077 75.6559 53.9319 47.6229
threshold=27.963129922200004 42.167188249350012 36.544603066500009 54.840786300950008 -92.011703236799988 0.46009753328136244 45.866416633850008 0.38546293710206736 32.701924662050011 51.766054409150009 39.356994788300007 40985.139026111268 55.169829831250006 23.784380152700002 6.5000000000000009 34.899162804800007 1.5000000000000002 16.964603569150004 1628.5004906516842 -89.89707874829999 34.357638483400002 48.764745248850005 0.32257329893112169 44.75990299055001 0.52154657200405297 7.5000000000000009 0.46559706127978856 954.60363496261027 0.72600586265903377 2.5000000000000004
decision_type=2 2 2 2 2 2 2 2 2 2 2 2 2 2 2 2 2 2 2 2 2 2 2 2 2 2 2 2 2 2
left_child=4 2 7 5 13 9 19 15 -9 14 16 17 -5 24 22 25 -4 -6 29 -7 -10 -8 -3 -16 -1 -2 27 -18 -28 -12
right_child=1 3 10 12 11 6 21 8 20 -11 18 -13 -14 -15 23 -17 26 -19 -20 -21 -22 -23 -24 -25 -26 -27 28 -29 -30 -31
leaf_value=-0.48667015201515618 -0.026977878340102474 0.34336079795186114 0.20955931581556797 0.70402355505072556 -0.76299441321557315 0.30938840456306937 0.56670814951260884 -0.26172834584053528 -0.15504912171098922 0.48576014121373501 0.22862080955505371 -0.92247065067291256 0.95484598599947423 -0.37003624342583324 0.2188046481264265 0.081804752959869803 0.054350543580949311 -0.63698206077451291 0.26107744034731167 0.44418982630190645 -0.067918879478364377 0.67178163881655095 0.45703390955924994 0.29188201119159829 -0.57085462653118635 -0.10125233096683897 0.036219309505668207 0.15732925697451547 0.12728577710333325 0.14822736893381391
leaf_weight=36 58 41 32 23 119 20 42 47 36 30 25 30 26 37 57 30 31 23 53 23 74 27 20 58 46 41 72 42 21 70
leaf_count=36 58 41 32 23 119 20 42 47 36 30 25 30 26 37 57 30 31 23 53 23 74 27 20 58 46 41 72 42 21 70
internal_value=1.15169e-09 0.190783 0.0380332 0.453828 -0.654955 0.394768 0.520928 -0.0915067 -0.145917 0.326176 0.14511 -0.77396 0.837113 -0.482948 0.298974 -0.0252862 0.102421 -0.742584 0.20222 0.381491 -0.0964342 0.607824 0.380631 0.255661 -0.533896 -0.057738 0.081768 0.113599 0.0567827 0.169384
internal_weight=1290 999 632 367 291 318 112 286 157 206 346 172 49 119 176 129 198 142 148 43 110 69 61 115 82 99 166 73 93 95
internal_count=1290 999 632 367 291 318 112 286 157 206 346 172 49 119 176 129 198 142 148 43 110 69 61 115 82 99 166 73 93 95
is_linear=0
shrinkage=0.05


Tree=7
num_leaves=31
num_cat=0
split_feature=0 0 0 0 0 0 3 3 0 2 4 0 0 3 4 0 0 0 0 0 0 4 2 2 2 3 1 4 1 4
split_gain=58189.8 14508.6 3368.99 2686.9 2157.24 766.008 748.862 496.684 425.57 372.005 356.382 324.798 289.66 277.501 219.876 178.735 166.703 165.551 165.468 96.6869 66.3723 59.179 56.1092 69.7831 56.6148 54.4323 57.9865 54.2362 49.7757 35.9895
threshold=27.963129922200004 41.57483186595001 53.933681837000002 36.544603066500009 17.613470758650003 55.169829831250006 1924.9933636720277 3726.3607526100473 45.866416633850008 0.38546293710206736 2.5000000000000004 32.701924662050011 11.795549405250002 2410.7436062157144 1.5000000000000002 22.522029300850004 39.340894396250008 44.879020764200007 33.916519215850009 15.162750013950001 34.357638483400002 3.5000000000000004 0.51438481343399378 0.72600586265903377 0.20334795718729973 1164.8364013172802 -89.148463788049995 7.5000000000000009 -101.99064456299999 16.000000000000004
decision_type=2 2 2 2 2 2 2 2 2 2 2 2 2 2 2 2 2 2 2 2 2 2 2 2 2 2 2 2 2 2
left_child=4 3 6 9 12 7 10 -4 -8 18 -3 29 -1 15 -5 -6 22 -12 -2 -14 -13 -10 24 -24 -16 -18 -27 -20 -15 -11
right_child=1 2 5 14 13 -7 8 -9 21 11 17 20 19 28 16 -17 25 -19 27 -21 -22 -23 23 -25 -26 26 -28 -29 -30 -31
leaf_value=-0.89877147674560554 -0.070557825344723546 0.41518486646505504 0.48636658191680909 0.2177912768390444 -0.46217315103858714 0.90710369807023283 0.34450882148963435 0.77422816960707963 0.48878536770741149 -0.2933360929074495 0.202632801082506 -0.14729667206605276 -0.74316022449069552 -0.46575614901689388 0.034335588983127045 -0.26711918219276098 0.10819687177153195 0.30140738502526898 0.086915389549047248 -0.65901386867869993 -0.064522934080781164 0.59669282546749824 0.017125143990691368 0.12543385222554207 0.13014867141971301 0.12448666759807131 0.2250738624679415 -0.017154686862514132 -0.55134643389254201 -0.20581002024312817
leaf_weight=24 77 39 43 54 24 26 54 23 24 23 93 36 90 26 21 23 34 78 31 55 74 27 58 20 58 23 38 21 49 24
leaf_count=24 77 39 43 54 24 26 54 23 24 23 93 36 90 26 21 23 34 78 31 55 74 27 58 20 58 23 38 21 49 24
internal_value=8.39887e-10 0.181243 0.411051 0.0232511 -0.622207 0.677236 0.333308 0.586682 0.442334 -0.0869314 0.278794 -0.138621 -0.737874 -0.46198 0.126232 -0.366721 0.106612 0.247688 -0.0240219 -0.711243 -0.0916125 0.545913 0.0749784 0.0448966 0.104679 0.158892 0.187148 0.0448871 -0.521675 -0.248642
internal_weight=1290 999 407 592 291 92 315 66 105 286 210 157 169 122 306 47 252 171 129 145 110 51 157 78 79 95 61 52 75 47
internal_count=1290 999 407 592 291 92 315 66 105 286 210 157 169 122 306 47 252 171 129 145 110 51 157 78 79 95 61 52 75 47
is_linear=0
shrinkage=0.05


Tree=8
num_leaves=31
num_cat=0
split_feature=0 0 0 0 1 2 0 2 0 0 3 0 0 0 4 0 4 0 3 4 1 0 2 0 4 0 2 2 3 2
split_gain=52516.3 13115.3 2846.38 2713.16 1955.07 909.736 440.154 335.734 293.13 292.009 272.97 271.749 246.592 230.837 209.15 150.604 140.421 108.081 99.9904 69.2194 67.5852 59.901 57.9024 52.7837 50.7639 47.0811 46.8297 43.8658 66.4418 43.919
threshold=27.963129922200004 42.167188249350012 36.544603066500009 54.840786300950008 -92.011703236799988 0.46009753328136244 45.866416633850008 0.38546293710206736 32.701924662050011 51.766054409150009 42602.816108143532 39.356994788300007 55.169829831250006 23.784380152700002 6.5000000000000009 34.660349168100005 1.5000000000000002 16.964603569150004 1840.4470127729262 1.0000000180025095e-35 -89.89707874829999 34.357638483400002 0.32257329893112169 43.344101348650007 16.000000000000004 14.055695094800003 0.52154657200405297 0.46559706127978856 954.60363496261027 0.72600586265903377
decision_type=2 2 2 2 2 2 2 2 2 2 2 2 2 2 2 2 2 2 2 2 2 2 2 2 2 2 2 2 2 2
left_child=4 2 7 5 13 9 20 15 -9 14 17 16 -5 26 22 -2 -4 25 -13 -8 -7 -10 -3 -16 -25 -6 -1 28 -18 -29
right_child=1 3 11 12 10 6 19 8 21 -11 -12 18 -14 -15 23 -17 27 -19 -20 -21 -22 -23 -24 24 -26 -27 -28 29 -30 -31
leaf_value=-0.43935268902116359 -0.059696763741191143 0.3104363364417379 0.18819177858531477 0.63699460236922567 -0.73382384051447336 0.27846698820590976 0.62269515340978454 -0.2362098403433536 -0.139931834075186 0.43838685512542724 -0.86780014946347195 0.15555149992307027 0.86174848996675935 -0.33161618661236125 0.16565170753002167 0.056327623365128913 0.047289105192307501 -0.57561276658721594 0.24607287012906964 0.51523480783117581 0.40414259330086089 -0.061296787354591736 0.41420740067958833 0.28703631550766701 0.21185920129906624 -0.67062451199787421 -0.51549173541690996 0.032472906838585107 0.14379341563298589 0.11465205294745309
leaf_weight=36 88 41 32 23 46 20 22 47 36 30 21 105 26 37 25 41 31 23 43 47 23 74 20 43 47 82 46 72 42 21
leaf_count=36 88 41 32 23 46 20 22 47 36 30 21 105 26 37 25 41 31 23 43 47 23 74 20 43 47 82 46 72 42 21
internal_value=-7.18057e-10 0.172181 0.0341265 0.409921 -0.591097 0.356556 0.47125 -0.0825848 -0.13169 0.294198 -0.698895 0.130599 0.756252 -0.435287 0.269621 -0.0228208 0.0922887 -0.675405 0.181852 0.549498 0.345689 -0.0870319 0.34446 0.229924 0.247777 -0.693337 -0.482065 0.0738014 0.102812 0.0510295
internal_weight=1290 999 632 367 291 318 112 286 157 206 172 346 49 119 176 129 198 151 148 69 43 110 61 115 90 128 82 166 73 93
internal_count=1290 999 632 367 291 318 112 286 157 206 172 346 49 119 176 129 198 151 148 69 43 110 61 115 90 128 82 166 73 93
is_linear=0
shrinkage=0.05


Tree=9
num_leaves=31
num_cat=0
split_feature=0 0 0 0 0 2 4 0 2 0 0 0 3 4 0 0 4 0 0 3 0 1 0 4 2 2 2 4 1 2
split_gain=47396 11836.6 2568.86 2451.87 1770.79 779.059 523.063 337.549 303 264.55 247.095 245.253 245 168.597 140.88 138.065 126.73 119.803 107.005 90.2413 85.5297 60.9956 54.0606 47.2583 39.6745 47.611 46.2289 39.4396 38.1904 37.7024
threshold=27.963129922200004 42.167188249350012 36.544603066500009 54.418284845350009 17.717407561500004 0.46009753328136244 6.5000000000000009 45.866416633850008 0.38546293710206736 32.701924662050011 11.795549405250002 39.356994788300007 2410.7436062157144 4.5000000000000009 22.522029300850004 34.899162804800007 1.5000000000000002 55.169829831250006 45.866416633850008 1840.4470127729262 15.162750013950001 -89.89707874829999 34.357638483400002 7.5000000000000009 0.51438481343399378 0.20334795718729973 0.72600586265903377 2.5000000000000004 -101.99064456299999 0.32257329893112169
decision_type=2 2 2 2 2 2 2 2 2 2 2 2 2 2 2 2 2 2 2 2 2 2 2 2 2 2 2 2 2 2
left_child=4 2 8 5 10 13 17 21 15 -10 -1 16 14 29 -6 23 -4 -5 -15 27 -12 -7 -11 -2 25 -18 -26 -13 -14 -3
right_child=1 3 11 6 12 7 -8 -9 9 22 20 19 28 18 -16 -17 24 -19 -20 -21 -22 -23 -24 -25 26 -27 -28 -29 -30 -31
leaf_value=-0.81295493841171274 -0.021109639936736948 0.30930095958709719 0.17878219541162255 0.68321133156617486 -0.41038053113481276 0.26454363897442817 0.48208262750080655 0.5113222024479851 -0.2243993469063153 -0.13293524682521821 -0.67051463180118143 0.20118956634631524 -0.42158349064680245 0.19554638342118602 -0.23537742547366933 0.072286863525708511 0.028645948001316618 0.84890614032745371 0.28118869137763974 0.23376922979301146 -0.59265289727983805 0.38393546265104544 -0.058231949081292027 -0.09124232944918842 0.02272409896676739 0.11540871232282371 0.10891944907960438 0.13019409387172023 -0.49710543155670167 0.40140441715717312
leaf_weight=24 58 25 32 24 23 20 28 61 47 36 90 26 26 71 23 30 21 20 75 43 58 23 74 41 60 64 21 79 47 20
leaf_count=24 58 25 32 24 23 20 28 61 47 36 90 26 26 71 23 30 21 20 75 43 58 23 74 41 60 64 21 79 47 20
internal_value=8.10088e-10 0.163572 0.0324202 0.389425 -0.561542 0.325578 0.651021 0.435693 -0.0784556 -0.125106 -0.664134 0.124069 -0.413257 0.265621 -0.322879 -0.0216798 0.0876743 0.758527 0.239541 0.172759 -0.640001 0.328404 -0.0826803 -0.0501545 0.0701113 0.0939732 0.045071 0.147774 -0.470207 0.350236
internal_weight=1290 999 632 367 291 295 72 104 286 157 172 346 119 191 46 129 198 44 146 148 148 43 110 99 166 85 81 105 73 45
internal_count=1290 999 632 367 291 295 72 104 286 157 172 346 119 191 46 129 198 44 146 148 148 43 110 99 166 85 81 105 73 45
is_linear=0
shrinkage=0.05


Tree=10
num_leaves=31
num_cat=0
split_feature=0 0 0 0 0 2 0 0 2 0 3 0 0 4 3 0 4 3 0 3 3 0 2 4 1 4 0 2 0 4
split_gain=42828.5 9927.83 2426.12 2227.64 1943.56 740.966 521.285 357.279 243.767 241.055 230.849 221.341 207.089 174.308 163.08 150.636 114.374 103.618 95.548 83.4373 82.7399 69.4458 65.5316 59.9591 55.0485 50.1703 49.5676 46.3673 44.7202 45.1724
threshold=30.101468815400001 42.167188249350012 17.717407561500004 54.840786300950008 36.544603066500009 0.46009753328136244 26.432810063100003 45.866416633850008 0.38546293710206736 51.766054409150009 36360.942242671626 39.356994788300007 55.169829831250006 6.5000000000000009 1840.4470127729262 34.357638483400002 1.5000000000000002 2410.7436062157144 34.899162804800007 2325.3451186641564 1628.5004906516842 16.326924757350003 0.61335032203902129 16.000000000000004 -89.89707874829999 7.5000000000000009 48.764745248850005 0.32257329893112169 43.344101348650007 16.000000000000004
decision_type=2 2 2 2 2 2 2 2 2 2 2 2 2 2 2 2 2 2 2 2 2 2 2 2 2 2 2 2 2 2
left_child=2 4 10 5 8 9 17 24 18 13 21 16 -5 27 -8 19 -6 -4 25 -10 -13 -1 -9 -21 -7 -2 -24 -3 -15 -30
right_child=1 3 6 12 11 7 14 22 15 -11 -12 20 -14 28 -16 -17 -18 -19 -20 23 -22 -23 26 -25 -26 -27 -28 -29 29 -31
leaf_value=-0.620057051860053 0.0016338622108166821 0.28086622749886864 -0.34703030471618357 0.57448220356650981 0.16984307933598758 0.25131645560264587 -0.099030563458800319 0.42193733169918968 -0.2353671758071236 0.39632753094037376 -0.75446494625460714 0.1361973996538865 0.78044833219968357 0.14759180310368539 -0.30094622775912283 -0.055320352557543168 0.066605740574648589 -0.44954151217617205 0.068672521561384203 -0.17505063009262087 0.2141730031033732 -0.5281807527542115 0.48489356770047121 -0.0655434880554676 0.36473869370377582 -0.076679117633746227 0.58795490384101867 0.37372734904289251 0.2602184144563453 0.18930230483095697
leaf_weight=116 43 41 39 23 32 20 20 21 23 30 31 95 26 25 20 74 166 67 30 25 53 25 28 25 23 39 20 20 43 47
leaf_count=116 43 41 39 23 32 20 20 21 23 30 31 95 26 25 20 74 166 67 30 25 53 25 28 25 23 39 20 20 43 47
internal_value=-1.35801e-09 0.164787 -0.503687 0.369954 0.0403296 0.321599 -0.353788 0.425108 -0.0632512 0.265322 -0.630928 0.117865 0.68377 0.242991 -0.199988 -0.105592 0.0832906 -0.411825 -0.00767905 -0.156552 0.164121 -0.603767 0.495606 -0.120297 0.311984 -0.0356126 0.527836 0.311312 0.206751 0.223184
internal_weight=1290 972 318 367 605 318 146 112 259 206 172 346 49 176 40 147 198 106 112 73 148 141 69 50 43 82 48 61 115 90
internal_count=1290 972 318 367 605 318 146 112 259 206 172 346 49 176 40 147 198 106 112 73 148 141 69 50 43 82 48 61 115 90
is_linear=0
shrinkage=0.05


Tree=11
num_leaves=31
num_cat=0
split_feature=0 0 0 0 0 2 0 0 3 3 0 3 0 0 0 4 4 0 3 3 4 3 4 0 2 3 1 2 0 4
split_gain=38652.7 8959.86 2189.57 2010.45 1754.06 668.721 479.575 322.444 238.221 223.047 217.552 211.549 199.76 190.662 186.898 157.313 103.222 75.2812 74.6728 61.243 60.7858 55.2502 62.8621 52.3578 50.5312 59.8782 49.6813 41.8465 40.36 40.7681
threshold=30.101468815400001 42.167188249350012 17.717407561500004 54.840786300950008 36.544603066500009 0.46009753328136244 24.601922725350004 45.866416633850008 2422.0383472366552 1215.2013073038963 51.766054409150009 42602.816108143532 39.356994788300007 34.357638483400002 55.169829831250006 6.5000000000000009 1.5000000000000002 15.162750013950001 1628.5004906516842 2410.7436062157144 1.0000000180025095e-35 2325.3451186641564 16.000000000000004 34.660349168100005 0.59007846008612586 2723.9170551782959 -89.89707874829999 0.32257329893112169 43.344101348650007 16.000000000000004
decision_type=2 2 2 2 2 2 2 2 2 2 2 2 2 2 2 2 2 2 2 2 2 2 2 2 2 2 2 2 2 2
left_child=2 4 11 5 9 10 19 26 -8 23 15 17 16 21 -5 27 -6 -1 -14 -4 -9 -11 -23 -2 -15 -26 -7 -3 -17 -30
right_child=1 3 6 14 12 7 8 20 -10 13 -12 -13 18 24 -16 28 -18 -19 -20 -21 -22 22 -24 -25 25 -27 -28 -29 29 -31
leaf_value=-0.60658238869841385 -0.026502675997107872 0.26682291990373191 -0.35310664933415192 0.54575809758642446 0.1613509275019169 0.23875062920153145 -0.13934071314356783 0.53941920562223955 -0.34508547733227413 -0.20553249716758729 0.37651115576426192 -0.7480740206582206 0.12938752804931841 0.022922989658334041 0.74142594337463386 0.14021221360936761 0.063275454274143092 -0.53399750641707722 0.20346435221298687 -0.44042820407633193 0.43871786050657013 -0.17229708720136572 -0.06226631677150727 0.05103263412461137 -0.10193639519887093 0.0044737238436937336 0.34650176271148353 0.35504097580909733 0.24720749061468036 0.17983718844170268
leaf_weight=93 64 41 31 23 32 20 34 22 24 29 30 21 95 22 26 25 166 58 53 57 47 27 25 33 39 20 23 20 43 47
leaf_count=93 64 41 31 23 32 20 34 22 24 29 30 21 95 22 26 25 166 58 53 57 47 27 25 33 39 20 23 20 43 47
internal_value=-4.85244e-10 0.156547 -0.478503 0.351456 0.0383131 0.305519 -0.336098 0.403853 -0.224476 -0.0600886 0.252056 -0.599381 0.111972 -0.095993 0.649582 0.230842 0.079126 -0.578702 0.155915 -0.409667 0.470826 -0.150236 -0.119398 -0.000124684 -0.0417499 -0.0658652 0.296385 0.295747 0.196414 0.212025
internal_weight=1290 972 318 367 605 318 146 112 58 259 206 172 346 162 49 176 198 151 148 88 69 81 52 97 81 59 43 61 115 90
internal_count=1290 972 318 367 605 318 146 112 58 259 206 172 346 162 49 176 198 151 148 88 69 81 52 97 81 59 43 61 115 90
is_linear=0
shrinkage=0.05


Tree=12
num_leaves=31
num_cat=0
split_feature=0 0 0 0 0 2 0 4 0 3 2 0 0 4 0 4 0 0 0 3 3 1 3 2 1 4 4 4 4 2
split_gain=34884.1 8086.28 1976.09 1825.36 1583.04 570.773 432.816 431.295 245.409 218.053 201.882 195.52 180.284 124.773 122.615 93.1582 82.9386 79.5499 78.4799 69.8612 68.3056 65.2033 55.2718 51.6026 44.8374 43.0221 37.1353 37.1244 45.6898 44.0762
threshold=30.101468815400001 42.167188249350012 17.717407561500004 54.418284845350009 36.544603066500009 0.46009753328136244 24.601922725350004 6.5000000000000009 45.866416633850008 1871.1366221228084 0.38546293710206736 11.795549405250002 39.356994788300007 4.5000000000000009 34.357638483400002 1.5000000000000002 45.866416633850008 34.899162804800007 55.169829831250006 2325.3451186641564 1840.4470127729262 -91.12767725019998 2410.7436062157144 0.78792775342428889 -89.89707874829999 7.5000000000000009 6.5000000000000009 13.500000000000002 19.500000000000004 0.46688586799074444
decision_type=2 2 2 2 2 2 2 2 2 2 2 2 2 2 2 2 2 2 2 2 2 2 2 2 2 2 2 2 2 2
left_child=2 4 11 5 10 13 22 18 24 -8 17 -1 15 -3 19 -6 -15 25 -5 -12 -14 -13 -4 -21 -7 -2 -22 29 -29 -17
right_child=1 3 6 7 12 8 9 -9 -10 -11 14 21 20 16 -16 27 -18 -19 -20 23 26 -23 -24 -25 -26 -27 -28 28 -30 -31
leaf_value=-0.70179332097371416 0.0024918873707742194 0.3002659633424547 -0.33545131894849961 0.59625901728868491 0.15328338146209719 0.22681309483945369 -0.10937168158383832 0.40619148228849683 0.43753285583902585 -0.30372962663250586 -0.21371139041755513 -0.46633069043358166 0.12638192364147732 0.16630571984594139 -0.050260509369341101 0.12364522704952641 0.24170461949706079 0.063155757337808607 0.73036710739135746 -0.057623118400573728 0.24875772967934609 -0.56144023148093636 -0.41840678286134153 -0.15921312767267226 0.32917667057203209 -0.070027831750802502 0.15580183728174732 -0.015146296205265182 0.062627915215903315 0.049326134792396004
leaf_weight=24 43 45 31 24 32 20 27 28 61 31 23 21 105 71 74 38 75 30 20 25 21 127 57 25 23 39 22 28 58 42
leaf_count=24 43 45 31 24 32 20 27 28 61 31 23 21 105 71 74 38 75 30 20 25 21 127 57 25 23 39 22 28 58 42
internal_value=1.54932e-10 0.14872 -0.454578 0.333884 0.0363974 0.278794 -0.319293 0.559596 0.373046 -0.213253 -0.0570842 -0.569412 0.106374 0.227474 -0.095616 0.0751697 0.205038 -0.00651126 0.657217 -0.141593 0.148119 -0.547945 -0.389184 -0.108418 0.281566 -0.0319992 0.201199 0.0601117 0.0373061 0.0846277
internal_weight=1290 972 318 367 605 295 146 72 104 58 259 172 346 191 147 198 146 112 44 73 148 148 88 50 43 82 43 166 86 80
internal_count=1290 972 318 367 605 295 146 72 104 58 259 172 346 191 147 198 146 112 44 73 148 148 88 50 43 82 43 166 86 80
is_linear=0
shrinkage=0.05


Tree=13
num_leaves=31
num_cat=0
split_feature=0 0 0 0 0 0 3 0 3 0 4 3 3 0 4 3 0 0 3 2 4 0 3 0 2 2 2 3 2 1
split_gain=31482.9 7300.67 1857.69 1783.42 1200.21 424.797 420.08 395.662 364.227 246.635 209.929 185.604 178.918 173.125 140.354 123.042 96.3012 79.4484 73.652 69.0003 56.4864 55.4764 53.4475 44.0762 39.6091 52.2887 44.1427 39.3318 48.9124 29.9625
threshold=30.101468815400001 41.57483186595001 53.933681837000002 17.717407561500004 36.544603066500009 55.169829831250006 1850.2145533625646 26.432810063100003 3726.3607526100473 45.866416633850008 2.5000000000000004 1215.2013073038963 36360.942242671626 32.701924662050011 1.5000000000000002 1840.4470127729262 44.879020764200007 39.340894396250008 2410.7436062157144 0.53767392356218668 3.5000000000000004 16.326924757350003 2981.0672989227228 34.660349168100005 0.51438481343399378 0.72600586265903377 0.20334795718729973 1164.8364013172802 0.40632547057618346 -101.99064456299999
decision_type=2 2 2 2 2 2 2 2 2 2 2 2 2 2 2 2 2 2 2 2 2 2 2 2 2 2 2 2 2 2
left_child=3 4 6 12 11 8 10 18 -4 -8 -3 23 21 -13 -6 -9 -12 24 -5 -15 -11 -1 -21 -2 26 -26 -16 -19 -29 -20
right_child=1 2 5 7 14 -7 9 15 -10 20 16 13 -14 19 17 -17 -18 27 29 22 -22 -23 -24 -25 25 -27 -28 28 -30 -31
leaf_value=-0.53159000056570971 -0.023732269700121836 0.30948761827067328 0.34705876181291984 -0.29926377328542564 0.16517702876417728 0.67157675211246204 0.25213491557432072 -0.081643413710407911 0.59356615128724477 0.34919961082935336 0.14448004072675338 -0.17435165131021113 -0.64969971564508255 0.021459140077881193 0.017351842919985452 -0.25703023027628663 0.22019144379748751 0.069348134451052729 -0.33443272367119792 -0.096735406149592668 0.45350135818675713 -0.44947266578674316 -0.011879295408725739 0.047407239810986955 0.005197136733552505 0.098951620012521752 0.10195553893673009 0.19205171652138234 0.10040052596580339 -0.40750161155741271
leaf_weight=116 64 38 43 39 54 26 56 20 23 25 91 42 31 23 21 20 78 34 20 72 27 25 25 33 58 20 58 24 37 47
leaf_count=116 64 38 43 39 54 26 56 20 23 25 91 42 31 23 21 20 78 34 20 72 27 25 25 33 58 20 58 24 37 47
internal_value=-2.81166e-10 0.141284 0.302737 -0.431849 0.0249808 0.500397 0.245007 -0.303329 0.432963 0.324945 0.2033 -0.05423 -0.540942 -0.0869824 0.0920253 -0.169337 0.179424 0.0763499 -0.353892 -0.0564031 0.403356 -0.51703 -0.0748653 0.000469831 0.0545113 0.0292367 0.0794659 0.112441 0.13646 -0.38569
internal_weight=1290 972 407 318 565 92 315 146 66 108 207 259 172 162 306 40 169 252 106 120 52 141 97 97 157 78 79 95 61 67
internal_count=1290 972 407 318 565 92 315 146 66 108 207 259 172 162 306 40 169 252 106 120 52 141 97 97 157 78 79 95 61 67
is_linear=0
shrinkage=0.05


Tree=14
num_leaves=31
num_cat=0
split_feature=0 0 0 0 0 2 4 0 0 3 3 0 0 0 4 4 0 2 0 3 0 3 2 3 0 1 4 4 1 2
split_gain=28413.3 6603.91 1609.54 1495.21 1285.27 469.352 367.808 358.789 197.489 184.385 167.508 166.184 156.246 146.138 101.352 74.8779 66.5971 62.2728 60.608 58.478 56.4244 48.2363 46.3878 44.2549 39.7787 39.1403 32.7731 31.5828 27.8013 27.7469
threshold=30.101468815400001 42.167188249350012 17.717407561500004 54.418284845350009 36.544603066500009 0.46009753328136244 6.5000000000000009 24.601922725350004 45.866416633850008 2422.0383472366552 1215.2013073038963 11.795549405250002 32.701924662050011 39.356994788300007 4.5000000000000009 7.5000000000000009 45.866416633850008 0.53767392356218668 55.169829831250006 1840.4470127729262 15.162750013950001 2981.0672989227228 0.45728274500422122 2410.7436062157144 34.660349168100005 -89.89707874829999 6.5000000000000009 2.5000000000000004 -92.548292398799987 0.32257329893112169
decision_type=2 2 2 2 2 2 2 2 2 2 2 2 2 2 2 2 2 2 2 2 2 2 2 2 2 2 2 2 2 2
left_child=2 4 11 5 10 14 18 23 25 -9 24 -1 -12 15 29 22 -16 -14 -5 27 -13 -19 28 -4 -2 -7 -21 -15 -6 -3
right_child=1 3 7 6 13 8 -8 9 -10 -11 12 20 17 19 16 -17 -18 21 -20 26 -22 -23 -24 -25 -26 -27 -28 -29 -30 -31
leaf_value=-0.63594111179312074 -0.022545657007140108 0.23564440798759462 -0.3037155651277112 0.54241688748200734 0.17303177050568841 0.20394225016236309 0.36417160779237751 -0.11671441064818817 0.39501157144054039 -0.29772398260732497 -0.16563406702397127 -0.51888678709665936 0.02038618274357008 0.16103783788589332 0.1502274113431783 0.039315937814589974 0.21779126417636874 -0.091898635423017877 0.66026991367340093 0.22714197515022186 -0.4556457373602637 -0.011285331904888153 0.055857774467606626 -0.37794461020252162 0.045036876066164543 0.29958172012930334 0.13981631465933539 0.097506291640898857 0.10089685851160218 0.31465745180845262
leaf_weight=24 64 25 31 24 22 20 28 34 61 24 42 90 23 26 71 107 75 72 20 21 58 25 35 57 33 23 22 79 34 20
leaf_count=24 64 25 31 24 22 20 28 34 61 24 42 90 23 26 71 107 75 72 20 21 58 25 35 57 33 23 22 79 34 20
internal_value=1.21036e-10 0.13422 -0.410256 0.301553 0.0327135 0.251694 0.505836 -0.288162 0.337163 -0.191615 -0.0515185 -0.513894 -0.0826332 0.0957657 0.205156 0.0676718 0.184935 -0.0535829 0.595986 0.133351 -0.494103 -0.071122 0.101013 -0.351796 0.000446339 0.255098 0.182464 0.113238 0.129236 0.270761
internal_weight=1290 972 318 367 605 295 72 146 104 58 259 172 162 346 191 198 146 120 44 148 148 97 91 88 97 43 43 105 56 45
internal_count=1290 972 318 367 605 295 72 146 104 58 259 172 162 346 191 198 146 120 44 148 148 97 91 88 97 43 43 105 56 45
is_linear=0
shrinkage=0.05


Tree=15
num_leaves=31
num_cat=0
split_feature=0 0 0 0 0 4 0 0 3 3 3 0 0 0 2 0 3 4 4 2 0 4 2 1 3 1 4 2 3 0
split_gain=25643 5960.02 1452.61 1355.91 1159.95 453.459 327.405 216.752 175.82 153.782 151.176 141.012 131.98 131.685 107.85 117.658 102.761 76.0114 110.386 73.8226 60.9924 60.2763 56.2012 55.2903 49.8651 79.47 48.586 46.9053 43.5333 35.9003
threshold=30.101468815400001 42.167188249350012 17.717407561500004 54.840786300950008 36.544603066500009 6.5000000000000009 26.432810063100003 44.879020764200007 869.71439866889932 42602.816108143532 1215.2013073038963 32.701924662050011 39.340894396250008 55.169829831250006 0.53767392356218668 51.766054409150009 1840.4470127729262 3.5000000000000004 1.0000000180025095e-35 0.51438481343399378 22.522029300850004 1.5000000000000002 0.53767392356218668 -91.12767725019998 1909.2269054758897 -93.84796771329998 17.500000000000004 0.72600586265903377 2981.0672989227228 34.660349168100005
decision_type=2 2 2 2 2 2 2 2 2 2 2 2 2 2 2 2 2 2 2 2 2 2 2 2 2 2 2 2 2 2
left_child=2 4 9 5 10 7 20 21 -9 23 29 -12 19 -5 15 -7 -8 18 -10 26 -4 -3 -13 -1 -14 -26 -6 -21 -24 -2
right_child=1 3 6 13 12 14 16 8 17 -11 11 22 24 -15 -16 -17 -18 -19 -20 27 -22 -23 28 -25 25 -27 -28 -29 -30 -31
leaf_value=-0.39529065120787849 -0.021418374177301303 0.28173047665393719 -0.34694872609206606 0.44415826849315476 0.11147599899651189 0.15694717873559624 -0.071725523201748728 0.24542463521162669 0.43684527635574338 -0.61497584297543484 -0.15735236379717077 0.019366873995117523 0.10671931860532176 0.60840094731404237 0.2889509027174208 0.28023536516272507 -0.23200766280293467 0.4820055050509317 0.27924813643097879 0.002786099718048655 -0.26686199516277864 0.17880324101448061 -0.087303701850275195 -0.48272893467774758 0.093700228728121157 0.22627135904935691 0.040281507968902591 0.091583342105150234 -0.010721066534519196 0.042785031596819567
leaf_weight=21 64 33 70 23 76 122 20 24 25 21 42 23 111 26 25 23 20 21 20 58 36 25 72 130 20 26 35 20 25 33
leaf_count=21 64 33 70 23 76 122 20 24 25 21 42 23 111 26 25 23 20 21 20 58 36 25 72 130 20 26 35 20 25 33
internal_value=-8.69911e-11 0.127509 -0.389744 0.286475 0.0310778 0.248749 -0.273754 0.31274 0.361316 -0.4882 -0.0489426 -0.0785016 0.0909774 0.531307 0.19304 0.176503 -0.151867 0.403458 0.366802 0.0628322 -0.319749 0.237365 -0.0509038 -0.470569 0.124859 0.168632 0.0890273 0.0255546 -0.0675659 0.000424022
internal_weight=1290 972 318 367 605 318 146 148 90 172 259 162 346 49 170 145 40 66 45 189 106 58 120 151 157 46 111 78 97 97
internal_count=1290 972 318 367 605 318 146 148 90 172 259 162 346 49 170 145 40 66 45 189 106 58 120 151 157 46 111 78 97 97
is_linear=0
shrinkage=0.05


Tree=16
num_leaves=31
num_cat=0
split_feature=0 0 0 0 0 2 4 0 3 0 1 3 0 0 4 2 0 4 2 3 0 1 1 3 3 0 2 0 2 1
split_gain=23142.8 5381.85 1310.98 1201.8 1080.07 381.923 316.642 297.367 202.294 148.879 144.333 136.436 129.109 127.263 95.2078 63.1957 60.2338 51.9924 50.7216 47.6382 45.4559 40.2818 40.1725 39.2888 38.1609 32.4 28.6906 27.6589 27.5444 26.619
threshold=30.101468815400001 42.625263902350007 17.717407561500004 54.418284845350009 36.544603066500009 0.46009753328136244 6.5000000000000009 23.784380152700002 2422.0383472366552 45.866416633850008 -85.882539991749979 1215.2013073038963 39.356994788300007 32.701924662050011 4.5000000000000009 0.46559706127978856 46.372082382050003 17.500000000000004 0.53767392356218668 1628.5004906516842 55.169829831250006 -89.89707874829999 -91.12767725019998 2981.0672989227228 2211.8684890252266 34.660349168100005 0.72600586265903377 43.344101348650007 0.63835902110002696 -78.578166509799985
decision_type=2 2 2 2 2 2 2 2 2 2 2 2 2 2 2 2 2 2 2 2 2 2 2 2 2 2 2 2 2 2
left_child=2 4 10 5 11 14 20 24 -9 21 22 25 15 -13 -3 17 27 -6 -15 29 -5 -7 -1 -20 -4 -2 -17 -16 -11 -14
right_child=1 3 7 6 12 9 -8 8 -10 28 -12 13 19 18 16 26 -18 -19 23 -21 -22 -23 -24 -25 -26 -27 -28 -29 -30 -31
leaf_value=-0.3755261208329882 -0.020347454212605955 0.25306704952949433 -0.27699572217875512 0.49477279186248779 0.11252662751291481 0.18234204560518266 0.32607787533530169 -0.09837870607418675 -0.27695289418615143 0.30791773810982703 -0.54837256498061693 -0.14948474829475997 0.080409944541752348 0.01839853019818016 0.091567687012932525 0.016050310939964323 0.20592304057088395 0.037890072550092427 -0.082938517627513253 0.15985861508072252 0.59683636903762816 0.28038645169951698 -0.45088627306478363 -0.010185012489557266 -0.34833842448468477 0.040645781701261346 0.082471258619001939 0.15668785477441455 0.37949003216515231 0.13230973373921145
leaf_weight=21 64 41 29 24 70 20 28 35 29 20 39 42 60 23 22 72 58 35 72 54 20 22 112 25 53 33 21 63 41 42
leaf_count=21 64 41 29 24 70 20 28 35 29 20 39 42 60 23 22 72 58 35 72 54 20 22 112 25 53 33 21 63 41 42
internal_value=-9.04362e-10 0.121133 -0.370256 0.274873 0.0310966 0.229052 0.45752 -0.260066 -0.179295 0.306144 -0.46379 -0.0464954 0.0878658 -0.0745765 0.185897 0.0610633 0.166639 0.0876478 -0.0483586 0.121884 0.541165 0.233699 -0.438987 -0.0641876 -0.323107 0.000402822 0.0310486 0.139833 0.356024 0.10178
internal_weight=1290 972 318 359 613 287 72 146 64 103 172 259 354 162 184 198 143 105 120 156 44 42 133 97 82 97 93 85 61 102
internal_count=1290 972 318 359 613 287 72 146 64 103 172 259 354 162 184 198 143 105 120 156 44 42 133 97 82 97 93 85 61 102
is_linear=0
shrinkage=0.05


Tree=17
num_leaves=31
num_cat=0
split_feature=0 0 0 0 1 0 3 3 4 0 3 0 3 4 0 2 2 0 4 0 1 3 4 4 4 2 0 0 2 1
split_gain=20887.4 5249.65 1255.62 945.308 822.58 292.059 287.818 284.975 179.24 146.541 148.185 135.162 127.124 105.972 100.236 78.2433 74.6383 69.0776 59.3976 52.8816 49.1609 55.9269 52.9493 47.8826 47.4708 46.9587 80.3277 43.5384 36.0686 27.8256
threshold=27.963129922200004 41.57483186595001 53.933681837000002 36.544603066500009 -92.011703236799988 55.169829831250006 3726.3607526100473 1924.9933636720277 2.5000000000000004 34.357638483400002 1135.2977144113793 45.866416633850008 42602.816108143532 1.5000000000000002 23.784380152700002 0.53767392356218668 0.49562811914865562 44.879020764200007 3.5000000000000004 38.564003662250009 -89.26404275874998 1237.7266475587896 10.500000000000002 7.5000000000000009 16.000000000000004 0.72600586265903377 32.071318590150007 14.189225819650002 0.51438481343399378 -80.799051873249979
decision_type=2 2 2 2 2 2 2 2 2 2 2 2 2 2 2 2 2 2 2 2 2 2 2 2 2 2 2 2 2 2
left_child=4 3 7 9 14 6 -4 8 -3 10 -2 -9 27 -5 -1 23 -12 -10 -13 28 22 -22 -21 -11 -17 -18 -27 -6 -15 -23
right_child=1 2 5 13 12 -7 -8 11 17 15 16 18 -14 19 -16 24 25 -19 -20 20 21 29 -24 -25 -26 26 -28 -29 -30 -31
leaf_value=-0.30253983634274184 -0.025858800666516319 0.26245849940639276 0.27704741811423106 0.13819771781499085 -0.46371890034240026 0.5512632195766155 0.49617774305136308 0.21148659661929639 0.11456862689666852 0.072127929871732541 -0.20818382726982235 0.26775738053644699 -0.55796898660205663 0.0620124206914065 -0.20340015010253804 -0.093163833220799769 -0.039942536413993528 0.17837260915682868 0.37586395888313379 0.079605508068712749 0.054834560751914979 0.17610111062725387 -0.016548434780402618 -0.02310164354064248 -0.0080023540804783511 -0.2047666344791651 -0.078483548456364696 -0.40721537085494613 0.0022269897771124941 0.10331882878110327
leaf_weight=82 68 39 43 54 52 26 23 54 93 33 20 24 21 52 37 30 23 78 27 41 35 24 22 22 36 20 34 99 49 29
leaf_count=82 68 39 43 54 52 26 23 54 93 33 20 24 21 52 37 30 23 78 27 41 35 24 22 22 36 20 34 99 49 29
internal_value=-1.83368e-10 0.108588 0.246822 0.0135516 -0.37278 0.409326 0.353411 0.199361 0.165733 -0.0518026 -0.0824517 0.266617 -0.442704 0.0746343 -0.271715 -0.0100084 -0.122125 0.143672 0.32499 0.0610135 0.079746 0.103885 0.0460279 0.0340361 -0.0467121 -0.0997721 -0.125255 -0.426674 0.0330076 0.136277
internal_weight=1290 999 407 592 291 92 66 315 210 286 165 105 172 306 119 121 97 171 51 252 151 88 63 55 66 77 54 151 101 53
internal_count=1290 999 407 592 291 92 66 315 210 286 165 105 172 306 119 121 97 171 51 252 151 88 63 55 66 77 54 151 101 53
is_linear=0
shrinkage=0.05


Tree=18
num_leaves=31
num_cat=0
split_feature=0 0 0 0 0 4 0 0 2 2 0 0 2 3 2 0 3 0 3 2 3 0 2 0 3 1 2 4 4 0
split_gain=18858.9 4399.68 1073.16 983.578 874.19 380.07 243.925 141.324 123.646 114.628 104.823 99.9968 94.1452 86.8236 79.7864 88.5665 78.6345 75.8884 65.9416 55.5859 50.0767 48.7665 46.5411 43.1962 40.3405 63.6974 38.2668 36.976 32.4995 28.4307
threshold=30.101468815400001 42.625263902350007 17.717407561500004 54.840786300950008 36.544603066500009 6.5000000000000009 26.432810063100003 48.764745248850005 0.91181767136673486 0.38546293710206736 39.340894396250008 55.169829831250006 0.40961869661605371 3255.8131553317321 0.53767392356218668 51.766054409150009 1840.4470127729262 34.357638483400002 2325.3451186641564 0.51438481343399378 2410.7436062157144 34.899162804800007 0.78792775342428889 15.162750013950001 1909.2269054758897 -93.84796771329998 0.72600586265903377 17.500000000000004 7.5000000000000009 43.344101348650007
decision_type=2 2 2 2 2 2 2 2 2 2 2 2 2 2 2 2 2 2 2 2 2 2 2 2 2 2 2 2 2 2
left_child=2 4 8 5 9 7 20 12 23 21 19 -5 -3 -14 15 29 -8 18 -11 27 -4 28 -20 -1 -12 -26 -21 -6 -2 -7
right_child=1 3 6 11 10 14 16 -9 -10 17 24 -13 13 -15 -16 -17 -18 -19 22 26 -22 -23 -24 -25 25 -27 -28 -29 -30 -31
leaf_value=-0.42339542404465053 0.0062643874436616905 0.19595804931794078 -0.22919637698393602 0.38057672614636634 0.095906356061153164 0.081040601703253667 -0.05922837354242802 0.37383020159242486 -0.52676155463508934 -0.1771364268563364 0.092530765578198115 0.52370006487919729 0.33502829849720001 0.21898650474570416 0.24658562654629348 0.23953744147134867 -0.19943759560585023 -0.035218038117966137 -0.026600020147860049 0.00067981144991414305 -0.30046049160743826 0.050789389808972678 -0.12307911659032107 -0.36800245532864023 0.079675625562667857 0.19740443544255362 0.080884380638599401 0.033797907829284671 -0.05676579656891334 0.14399701585397892
leaf_weight=92 43 47 39 23 76 22 20 29 23 23 118 26 40 27 25 23 20 74 25 58 67 30 25 57 20 27 20 35 39 97
leaf_count=92 43 47 39 23 76 22 20 29 23 23 118 26 40 27 25 23 20 74 25 58 67 30 25 57 20 27 20 35 39 97
internal_value=2.4569e-10 0.109349 -0.334235 0.248354 0.0279411 0.21545 -0.23454 0.275279 -0.418861 -0.0418651 0.0790141 0.45652 0.250209 0.288265 0.164219 0.149718 -0.129333 -0.0708997 -0.10707 0.0535922 -0.274241 -0.00375728 -0.0748396 -0.402205 0.108134 0.147307 0.0212451 0.0763226 -0.0237134 0.132358
internal_weight=1290 972 318 359 613 310 146 143 172 259 354 49 114 67 167 142 40 147 73 189 106 112 50 149 165 47 78 111 82 119
internal_count=1290 972 318 359 613 310 146 143 172 259 354 49 114 67 167 142 40 147 73 189 106 112 50 149 165 47 78 111 82 119
is_linear=0
shrinkage=0.05


Tree=19
num_leaves=31
num_cat=0
split_feature=0 0 0 0 0 2 4 0 3 0 1 3 0 0 4 2 2 2 3 1 2 2 0 2 1 4 0 3 3 2
split_gain=17020.1 3970.71 968.523 892.713 788.956 283.339 256.061 221.947 161.657 116.341 112.945 103.491 103.317 94.6028 72.3703 50.1663 47.0228 40.3312 36.4073 57.4869 36.1558 34.5357 34.4026 36.9798 34.1637 33.3708 32.1043 30.2837 29.7959 28.9966
threshold=30.101468815400001 42.625263902350007 17.717407561500004 54.418284845350009 36.544603066500009 0.46009753328136244 6.5000000000000009 23.784380152700002 2422.0383472366552 45.866416633850008 -86.479143634599993 1215.2013073038963 32.071318590150007 39.340894396250008 16.000000000000004 0.51438481343399378 0.53767392356218668 0.91181767136673486 1909.2269054758897 -93.84796771329998 0.57649694863810708 0.72600586265903377 43.812901627350008 0.32257329893112169 -89.89707874829999 17.500000000000004 16.326924757350003 2211.8684890252266 2981.0672989227228 0.26531095110483177
decision_type=2 2 2 2 2 2 2 2 2 2 2 2 2 2 2 2 2 2 2 2 2 2 2 2 2 2 2 2 2 2
left_child=2 4 10 5 11 14 20 27 -9 24 26 -2 -13 15 22 25 -14 -12 -15 -20 -5 -17 -3 29 -7 -6 -1 -4 -18 -24
right_child=1 3 7 6 13 9 -8 8 -10 -11 17 12 16 18 -16 21 28 -19 19 -21 -22 -23 23 -25 -26 -27 -28 -29 -30 -31
leaf_value=-0.38393119830834244 0.0010735219632534638 0.12765090924998124 -0.23619818481905708 0.51188173708708395 0.091111039133714877 0.15150804340839386 0.27515207603573799 -0.080698251639093679 -0.24033185408033175 0.30693895744434641 -0.42467408577601118 -0.14317567604170606 0.019109061981240908 0.087904227373063956 0.11474687405785576 0.00064582124609371711 -0.074136089017758006 -0.51465623855590825 0.075691843964159497 0.18753421438375006 0.42113902742664022 0.076840165480971334 0.19534203548414203 0.24427905248271095 0.2418002909218723 0.032108013289315361 -0.31920834214737021 -0.29975245769293801 -0.013194455565125855 0.12449970804154874
leaf_weight=95 97 24 29 23 76 20 28 35 29 61 33 33 24 118 61 58 78 20 20 27 21 20 52 27 22 35 24 53 27 20
leaf_count=95 97 24 29 23 76 20 28 35 29 61 33 33 24 118 61 58 78 20 20 27 21 20 52 27 22 35 24 53 27 20
internal_value=-3.94445e-10 0.103881 -0.317524 0.235936 0.0265441 0.196444 0.393354 -0.222813 -0.153032 0.262845 -0.397918 -0.0397719 -0.0642287 0.0750634 0.159274 0.0509126 -0.0440329 -0.45863 0.102727 0.139942 0.468573 0.0201828 0.181357 0.194377 0.198804 0.0725065 -0.370878 -0.277276 -0.0584654 0.175664
internal_weight=1290 972 318 359 613 287 72 146 64 103 172 259 162 354 184 189 129 53 165 47 44 78 123 99 42 111 119 82 105 72
internal_count=1290 972 318 359 613 287 72 146 64 103 172 259 162 354 184 189 129 53 165 47 44 78 123 99 42 111 119 82 105 72
is_linear=0
shrinkage=0.05


Tree=20
num_leaves=31
num_cat=0
split_feature=0 0 0 0 0 4 0 0 3 0 0 3 0 0 0 3 3 4 2 3 0 3 1 0 4 3 3 0 1 2
split_gain=15360.7 3583.57 874.092 809.287 712.033 323.71 201.556 177.46 178.385 103.816 103.746 93.4006 93.2433 86.7207 85.379 65.1389 63.3596 46.4591 42.438 39.729 34.487 32.8576 51.8819 32.4129 28.0226 27.743 26.8908 24.6063 22.8613 20.6564
threshold=30.101468815400001 42.625263902350007 17.717407561500004 54.840786300950008 36.544603066500009 1.5000000000000002 26.432810063100003 45.866416633850008 1824.2626821589567 11.795549405250002 46.824592585800012 1215.2013073038963 32.071318590150007 55.169829831250006 39.340894396250008 1840.4470127729262 3182.2181720046774 1.5000000000000002 0.53767392356218668 2410.7436062157144 15.162750013950001 1909.2269054758897 -93.84796771329998 51.766054409150009 4.5000000000000009 1803.3514956511078 2981.0672989227228 34.660349168100005 -101.99064456299999 0.12192532543286862
decision_type=2 2 2 2 2 2 2 2 2 2 2 2 2 2 2 2 2 2 2 2 2 2 2 2 2 2 2 2 2 2
left_child=2 4 9 5 11 10 19 25 23 -1 -3 27 -13 -5 17 -8 -10 -6 -14 -4 -11 24 -23 -9 -16 29 -20 -2 -21 -7
right_child=1 3 6 13 14 7 15 8 16 20 -12 12 18 -15 21 -17 -18 -19 26 28 -22 22 -24 -25 -26 -27 -28 -29 -30 -31
leaf_value=-0.47448530544837314 -0.017063316568965092 0.24180686724813363 -0.20763940199827538 0.34224077387024532 0.10327667901292444 0.14303761895745992 -0.052232045382261276 0.14891447462666205 0.34235105551779271 -0.38175482379065623 0.37142560802973235 -0.1360168953510848 0.018153610701362292 0.47552499725268443 0.11568856651970555 -0.17984363064169884 0.22342769226857595 0.037175174906944775 -0.070429284235414794 -0.22634194292128088 -0.33231310763492666 0.071907249763607989 0.17815750577073131 0.21416720656248242 0.065059405912334722 0.15486852920481139 -0.012534731322968449 0.036090220736734797 -0.29016736631697798 0.082738770301244713
leaf_weight=24 64 38 39 23 32 20 20 71 24 90 26 33 24 26 43 20 21 157 78 20 58 20 27 26 75 35 27 33 47 49
leaf_count=24 64 38 39 23 32 20 20 71 24 90 26 33 24 26 43 20 21 157 78 20 58 20 27 26 75 35 27 33 47 49
internal_value=-3.85344e-11 0.0986871 -0.301647 0.224139 0.0252169 0.194293 -0.211672 0.168232 0.204575 -0.378022 0.294464 -0.0377833 -0.0610172 0.412963 0.0713102 -0.116038 0.286853 0.048367 -0.0418313 -0.247761 -0.362379 0.0975907 0.132945 0.166405 0.083509 0.118609 -0.0555421 0.00101985 -0.271115 0.100217
internal_weight=1290 972 318 359 613 310 146 246 142 172 64 259 162 49 354 40 45 189 129 106 148 165 47 97 118 104 105 97 67 69
internal_count=1290 972 318 359 613 310 146 246 142 172 64 259 162 49 354 40 45 189 129 106 148 165 47 97 118 104 105 97 67 69
is_linear=0
shrinkage=0.05


Tree=21
num_leaves=31
num_cat=0
split_feature=0 0 0 0 0 2 4 0 3 0 4 3 3 0 2 0 2 3 4 0 4 3 0 4 4 3 1 3 4 3
split_gain=13863 3234.17 788.868 731.485 642.61 234.056 220.217 185.798 138.742 120.575 119.872 96.0212 84.2941 85.9926 80.0991 92.1104 95.0643 45.3787 51.5647 43.8804 40.3241 37.909 35.7141 35.5189 34.4965 31.0444 30.601 28.944 38.3813 27.8355
threshold=30.101468815400001 42.625263902350007 17.717407561500004 54.418284845350009 36.544603066500009 0.59007846008612586 6.5000000000000009 23.784380152700002 3456.687609684684 45.866416633850008 1.5000000000000002 36360.942242671626 1215.2013073038963 34.357638483400002 0.77108211551685113 39.340894396250008 0.51438481343399378 2325.3451186641564 16.000000000000004 45.866416633850008 13.500000000000002 3202.4277353103303 41.200788145900006 13.500000000000002 3.5000000000000004 1803.3514956511078 -91.12767725019998 1554.6088194410333 17.500000000000004 1850.2145533625646
decision_type=2 2 2 2 2 2 2 2 2 2 2 2 2 2 2 2 2 2 2 2 2 2 2 2 2 2 2 2 2 2
left_child=2 4 11 5 12 10 21 -4 23 -7 -3 26 -2 17 15 16 27 -14 -19 25 22 -5 -17 -9 -11 -12 -1 28 -6 -18
right_child=1 3 7 6 14 9 -8 8 -10 24 19 -13 13 -15 -16 20 29 18 -20 -21 -22 -23 -24 -25 -26 -27 -28 -29 -30 -31
leaf_value=-0.28592235105378289 0.00096885300404632229 0.23570630210969182 -0.25091936961724992 0.38083678950434147 0.07676277942955495 0.15973211470104398 0.2458107913179057 -0.042686429213393821 -0.24643622845411303 0.26102588137854704 0.093292089802862133 -0.43879493974870254 -0.14450869463897983 -0.021537732861844114 0.16013788607987492 0.14493777167406821 0.022634171077183317 -0.11435773401279692 -0.014703434884548186 0.15931862522556914 0.057948835478243178 0.4737535256715048 0.082675952756521759 -0.13253333297642797 0.3476240235826244 0.16187554869631476 -0.35134784977262218 0.11223431617881244 0.0064559537172317509 -0.040887292649816068
leaf_weight=21 97 36 82 23 55 21 28 22 20 23 66 31 29 81 22 42 35 27 25 96 59 21 51 22 23 22 120 26 30 34
leaf_count=21 97 36 82 23 55 21 28 22 20 23 66 31 29 81 22 42 35 27 25 96 59 21 51 22 23 22 120 26 30 34
internal_value=-4.48623e-10 0.0937528 -0.286565 0.212932 0.023956 0.177184 0.355427 -0.201089 -0.137243 0.259005 0.152266 -0.359121 -0.0358941 -0.0579664 0.0677447 0.0616223 0.0374208 -0.094395 -0.066447 0.135941 0.0902819 0.425183 0.110794 -0.0876099 0.304325 0.110438 -0.341604 0.0660696 0.0519486 -0.00866626
internal_weight=1290 972 318 359 613 287 72 146 64 67 220 172 259 162 354 332 180 81 52 184 152 44 93 44 46 88 141 111 85 69
internal_count=1290 972 318 359 613 287 72 146 64 67 220 172 259 162 354 332 180 81 52 184 152 44 93 44 46 88 141 111 85 69
is_linear=0
shrinkage=0.05


Tree=22
num_leaves=31
num_cat=0
split_feature=0 0 0 0 0 0 3 2 0 2 3 4 2 2 4 0 0 3 2 2 2 1 0 2 4 4 0 3 4 0
split_gain=12511.4 2923.67 762.153 711.953 469.938 192.892 221.763 177.095 167.682 147.08 125.215 100.645 90.5687 78.3623 77.6403 57.4611 54.0371 56.8173 47.5877 43.0392 53.3719 41.3473 41.1223 40.0379 37.0299 46.4033 52.5551 36.2446 32.0558 30.3791
threshold=30.101468815400001 41.57483186595001 53.933681837000002 17.717407561500004 36.544603066500009 55.169829831250006 3726.3607526100473 0.59007846008612586 23.784380152700002 0.78490637459032719 3456.687609684684 4.5000000000000009 0.91181767136673486 0.38546293710206736 1.5000000000000002 46.824592585800012 34.357638483400002 2288.6825258974609 0.78792775342428889 0.75088085634292512 0.52421814102293751 -73.699930657299987 35.563818799400003 0.36506123982095856 16.000000000000004 11.500000000000002 46.824592585800012 1099.5721786144477 13.500000000000002 14.189225819650002
decision_type=2 2 2 2 2 2 2 2 2 2 2 2 2 2 2 2 2 2 2 2 2 2 2 2 2 2 2 2 2 2
left_child=3 4 7 12 13 6 -4 11 -5 15 28 23 29 22 -6 -9 17 -15 -19 20 27 24 -2 -3 25 26 -13 -16 -10 -1
right_child=1 2 5 8 14 -7 -8 9 10 -11 -12 21 -14 16 19 -17 -18 18 -20 -21 -22 -23 -24 -25 -26 -27 -28 -29 -30 -31
leaf_value=-0.35774502318639023 -0.01799292706078693 0.1395317440107465 0.20537105961594473 -0.23837340180194233 0.11182522447434839 0.43319277465343475 0.3977193788341854 0.22694198918927994 -0.040552109750834384 0.11179149990901352 -0.23411441683769227 0.074826074831071315 -0.43351192059724231 -0.16043537698686125 0.02790769384457515 0.33790640205144884 -0.027996186066318204 -0.011389769971370698 -0.10629854791664653 0.11429206796345258 0.005206551902780408 0.18154902204871179 0.057006688739942468 0.21479316743653876 0.074020004291403096 0.19005119502544404 0.16309052361891821 0.076905803708359602 -0.12590666467493231 -0.31037939303007323
leaf_weight=52 89 30 43 82 54 26 23 28 22 20 20 48 23 20 65 20 74 25 28 21 76 20 23 43 59 21 26 90 22 97
leaf_count=52 89 30 43 82 54 26 23 28 22 20 20 48 23 20 65 20 74 25 28 21 76 20 23 43 59 21 26 90 22 97
internal_value=1.58794e-10 0.0890651 0.191236 -0.272237 0.0154658 0.317843 0.272402 0.154259 -0.191034 0.225711 -0.130381 0.134588 -0.341165 -0.0340994 0.057418 0.273177 -0.0581056 -0.0886275 -0.0615303 0.0457593 0.0395291 0.113915 -0.00259122 0.183864 0.105132 0.124453 0.105838 0.0563582 -0.0832294 -0.32691
internal_weight=1290 972 407 318 565 92 66 315 146 68 64 247 172 259 306 48 147 73 53 252 231 174 112 73 154 95 74 155 44 149
internal_count=1290 972 407 318 565 92 66 315 146 68 64 247 172 259 306 48 147 73 53 252 231 174 112 73 154 95 74 155 44 149
is_linear=0
shrinkage=0.05


Tree=23
num_leaves=31
num_cat=0
split_feature=0 0 0 0 0 4 4 0 1 3 3 0 4 2 0 2 0 3 0 2 1 2 4 0 3 4 3 1 3 1
split_gain=11291.5 2642.78 642.538 599.237 521.436 255.815 151.502 92.5997 83.0843 75.7818 70.8174 79.1922 69.2936 68.5728 77.9077 79.3334 55.1862 52.5238 53.603 50.3225 49.3238 34.931 34.2112 33.6899 25.4769 25.7426 24.7182 24.1274 23.0333 21.817
threshold=30.101468815400001 42.625263902350007 17.717407561500004 54.840786300950008 36.544603066500009 6.5000000000000009 7.5000000000000009 53.933681837000002 -85.882539991749979 3146.2574713206805 1215.2013073038963 32.071318590150007 1.5000000000000002 0.77108211551685113 39.340894396250008 0.51438481343399378 23.784380152700002 2155.471004000367 51.766054409150009 0.46009753328136244 -95.287216720699988 0.53767392356218668 13.500000000000002 41.200788145900006 1739.5571909714151 17.500000000000004 1850.2145533625646 -91.12767725019998 2981.0672989227228 -89.710083199449983
decision_type=2 2 2 2 2 2 2 2 2 2 2 2 2 2 2 2 2 2 2 2 2 2 2 2 2 2 2 2 2 2
left_child=2 4 8 5 10 7 -4 12 27 -5 -2 -12 19 14 15 24 -8 18 -7 -3 -14 -13 23 -16 25 -6 -17 -1 29 -23
right_child=1 3 6 9 13 17 16 -9 -10 -11 11 21 20 -15 22 26 -18 -19 -20 -21 -22 28 -24 -25 -26 -27 -28 -29 -30 -31
leaf_value=-0.25610726901463104 0.0013934972167936798 0.18402026680608591 -0.079177553694823696 0.2986986741975502 0.06745074841177516 0.10128599514794207 -0.23159029054177274 0.30765073944045151 -0.38828033850743227 0.42371230856938802 -0.12174354938959533 0.019477281719446182 0.11730290538360995 0.14645049104636365 0.13371142559640467 0.020434913635253907 -0.15919621720910074 0.20065342083573345 0.18439505087292715 0.2797979681752622 0.20513442090966483 -0.098558185880000773 0.051874286365711092 0.073239801400432403 0.10739185200496154 0.011413205415010452 -0.039424094996031597 -0.31450995353183581 -0.0075800168336610553 -0.042462920136033346
leaf_weight=21 97 24 29 27 57 124 77 23 39 22 33 24 31 22 42 35 40 20 23 32 33 26 59 51 22 32 34 112 27 52
leaf_count=21 97 24 29 27 57 124 77 23 39 22 33 24 31 22 42 35 40 20 23 32 33 26 59 51 22 32 34 112 27 52
internal_value=3.55328e-10 0.0846119 -0.258625 0.192345 0.0215184 0.166663 -0.181483 0.215747 -0.324106 0.354827 -0.0323944 -0.0526255 0.198132 0.0609631 0.0552983 0.0330408 -0.20684 0.124632 0.114289 0.23875 0.162591 -0.0349441 0.0816559 0.10055 0.059212 0.0473024 -0.00906083 -0.305288 -0.0473833 -0.0611613
internal_weight=1290 972 318 359 613 310 146 143 172 49 259 162 120 354 332 180 117 167 147 56 64 129 152 93 111 89 69 133 105 78
internal_count=1290 972 318 359 613 310 146 143 172 49 259 162 120 354 332 180 117 167 147 56 64 129 152 93 111 89 69 133 105 78
is_linear=0
shrinkage=0.05


Tree=24
num_leaves=31
num_cat=0
split_feature=0 0 0 0 0 2 4 3 0 0 4 3 4 4 3 1 4 0 1 2 0 1 1 4 2 3 2 4 0 0
split_gain=10190.6 2389.64 604.34 579.89 395.455 190.582 177.257 144.904 114.446 104.939 86.3996 77.7268 65.9248 77.55 71.07 81.9778 60.5583 52.5629 52.3896 48.3325 41.2978 41.2471 40.4179 38.2507 34.9337 33.657 33.3288 31.4272 27.8208 25.467
threshold=30.101468815400001 41.649034479550004 54.418284845350009 17.717407561500004 36.544603066500009 0.59007846008612586 6.5000000000000009 2410.7436062157144 44.75990299055001 23.784380152700002 4.5000000000000009 42602.816108143532 7.5000000000000009 11.500000000000002 2825.8527581720077 -92.011703236799988 1.0000000180025095e-35 38.564003662250009 -89.148463788049995 0.63421272392597949 46.372082382050003 -102.54627997399999 -95.287216720699988 10.500000000000002 0.57649694863810708 1225.1632802882993 0.61937405923360955 3.5000000000000004 15.162750013950001 34.357638483400002
decision_type=2 2 2 2 2 2 2 2 2 2 2 2 2 2 2 2 2 2 2 2 2 2 2 2 2 2 2 2 2 2
left_child=3 4 5 11 12 10 24 9 -7 -5 22 28 19 -14 15 25 -6 -18 23 29 -12 -9 -3 -19 -4 -15 -17 -10 -1 -2
right_child=1 2 6 7 16 8 -8 21 27 -11 20 -13 13 14 -16 26 17 18 -20 -21 -22 -23 -24 -25 -26 -27 -28 -29 -30 -31
leaf_value=-0.31231523136938777 -0.0084205422964360992 0.12974042192320615 0.4106236003987167 -0.18542354087034862 0.13470517652375358 0.12973828149529607 0.20712446080786839 -0.16513602825311513 0.21942996903788298 -0.057984907712255208 0.088188512269860242 -0.39803122565859844 -0.14138301043283372 -0.061204426061539419 0.04407328694466163 0.023966889359332898 0.018885734466679186 0.056010324144508787 0.082318890191737784 -0.049595133118065342 0.13920984165432554 -0.24156205391003327 0.20388908859342339 -0.023468042351305486 0.32142768860572862 -0.14875532084185145 -0.0495212198752496 0.2987106875181198 -0.26818988621234896 0.050265075658497062
leaf_weight=93 36 34 23 30 21 26 28 26 25 35 117 21 21 21 22 27 107 41 121 35 60 55 40 24 21 23 36 25 58 38
leaf_count=93 36 34 23 30 21 26 28 26 25 35 117 21 21 21 22 27 107 41 121 35 60 55 40 24 21 23 36 25 58 38
internal_value=-2.20036e-10 0.0803813 0.174331 -0.245694 0.0149611 0.145456 0.30547 -0.172408 0.214825 -0.116803 0.124452 -0.307901 -0.0307747 -0.0522784 -0.037773 -0.0546012 0.0526859 0.0468073 0.0628698 -0.00118253 0.105484 -0.21703 0.169821 0.0266645 0.368053 -0.10697 -0.0180263 0.25907 -0.295366 0.0217153
internal_weight=1290 972 399 318 573 327 72 146 76 65 251 172 259 150 129 107 314 293 186 109 177 81 74 65 44 44 63 50 151 74
internal_count=1290 972 399 318 573 327 72 146 76 65 251 172 259 150 129 107 314 293 186 109 177 81 74 65 44 44 63 50 151 74
is_linear=0
shrinkage=0.05


Tree=25
num_leaves=31
num_cat=0
split_feature=0 0 0 0 0 4 3 0 3 0 0 2 0 2 0 2 0 3 3 2 2 4 2 4 3 4 0 0 0 3
split_gain=9197 2158.64 523.351 491.747 423.313 223.04 130.776 113.794 110.931 94.7077 75.4706 72.4403 71.1599 61.0486 64.1007 69.6425 60.5485 58.7305 58.4594 42.0456 40.0314 39.7956 37.9122 36.9901 30.2552 29.4385 31.562 25.2239 23.3883 22.7212
threshold=30.101468815400001 42.625263902350007 17.717407561500004 54.840786300950008 36.544603066500009 1.5000000000000002 2410.7436062157144 45.866416633850008 1824.2626821589567 23.784380152700002 46.824592585800012 0.91181767136673486 55.169829831250006 0.77108211551685113 39.340894396250008 0.51438481343399378 34.357638483400002 1215.2013073038963 3182.2181720046774 0.53767392356218668 0.66025289793313224 16.000000000000004 0.72000910786101169 7.5000000000000009 2877.1821953785861 13.500000000000002 41.200788145900006 16.326924757350003 23.784380152700002 1554.6088194410333
decision_type=2 2 2 2 2 2 2 2 2 2 2 2 2 2 2 2 2 2 2 2 2 2 2 2 2 2 2 2 2 2
left_child=2 4 11 5 16 10 9 -7 -9 -4 -3 27 -5 14 15 29 17 -2 -10 23 -19 -21 -8 -18 -22 26 -16 -1 -24 -6
right_child=1 3 6 12 13 7 22 8 18 -11 -12 -13 -14 -15 25 -17 19 20 -20 21 24 -23 28 -25 -26 -27 -28 -29 -30 -31
leaf_value=-0.28899454863802082 -0.012989616874409349 0.18870030625380185 -0.17615236639976503 0.25685433648202732 0.041355541462407393 0.089094564783422703 -0.24639729769790875 0.1278333479903408 0.27612522039562465 -0.055085663838045945 0.29925329150775304 -0.37509557060573417 0.37758986577391629 0.13554123645140367 0.12306716498874484 -0.010100396488037339 0.062348872423171997 -0.13505437481824473 0.16189308336802893 -0.072855114930619788 -0.026760496199131012 0.0051184586042331325 -0.20878328041961561 -0.021351213753223422 -0.10008331355638803 0.04581716122792371 0.064536444083148362 -0.23394059658050539 -0.13783826310010183 0.094769014303500834
leaf_weight=124 57 38 30 23 85 104 34 97 24 35 26 23 26 22 42 69 33 23 21 30 34 36 26 22 24 59 51 25 21 26
leaf_count=124 57 38 30 23 85 104 34 97 24 35 26 23 26 22 42 69 33 23 21 30 34 36 26 22 24 59 51 25 21 26
internal_value=-7.23796e-10 0.0763622 -0.233409 0.173729 0.0193401 0.150463 -0.163788 0.128831 0.157934 -0.110963 0.233612 -0.292506 0.320918 0.0548802 0.0495352 0.029346 -0.029236 -0.0518733 0.222817 -0.00341821 -0.0792359 -0.0303241 -0.206179 0.0288688 -0.057101 0.0734434 0.0909697 -0.279757 -0.177084 0.0538668
internal_weight=1290 972 318 359 613 310 146 246 142 65 64 172 49 354 332 180 259 138 45 121 81 66 81 55 58 152 93 149 47 111
internal_count=1290 972 318 359 613 310 146 246 142 65 64 172 49 354 332 180 259 138 45 121 81 66 81 55 58 152 93 149 47 111
is_linear=0
shrinkage=0.05


Tree=26
num_leaves=31
num_cat=0
split_feature=0 0 0 0 0 3 0 3 3 4 0 0 0 4 4 4 3 1 4 0 2 0 1 2 2 2 3 1 2 1
split_gain=8300.29 1953.64 511.319 472.324 308.435 152.486 135.32 122.546 118.025 90.3691 85.4737 67.1885 62.3613 57.6481 55.6363 66.8272 68.7044 92.5144 50.1969 39.513 38.6377 37.194 36.0393 33.922 32.2446 39.0756 49.0249 23.2928 22.2621 21.4742
threshold=30.101468815400001 41.57483186595001 51.766054409150009 17.717407561500004 36.544603066500009 3202.4277353103303 55.169829831250006 1824.2626821589567 2410.7436062157144 2.5000000000000004 23.784380152700002 11.795549405250002 45.866416633850008 1.5000000000000002 7.5000000000000009 11.500000000000002 2410.7436062157144 -92.011703236799988 3.5000000000000004 44.005937732550009 0.63421272392597949 43.344101348650007 -102.54627997399999 0.61937405923360955 0.75088085634292512 0.45728274500422122 1099.5721786144477 -91.12767725019998 0.72000910786101169 -105.99864769799998
decision_type=2 2 2 2 2 2 2 2 2 2 2 2 2 2 2 2 2 2 2 2 2 2 2 2 2 2 2 2 2 2
left_child=3 4 7 11 14 6 29 9 10 -3 -5 -1 21 -6 20 -16 17 -17 -14 -11 -2 -9 -10 -19 25 26 -15 -13 -24 -4
right_child=1 2 5 8 13 -7 -8 12 22 19 -12 27 18 24 15 16 -18 23 -20 -21 -22 -23 28 -25 -26 -27 -28 -29 -30 -31
leaf_value=-0.35548371473948159 0.019883910672286075 0.1705093903859195 0.19876062220798002 -0.1673447511593501 0.093249911456196405 0.34470368735492229 0.32095843940973284 0.17435583637229035 -0.14736214369320527 0.050393682113763966 -0.052331380801541462 -0.21651637156804404 0.15283645638688045 0.018803008704904527 -0.13024408121903738 -0.11789607824505986 0.025736047284943719 0.024293902626744024 0.25458154601079447 0.10254006626097503 -0.043874724677630837 0.094854793829783318 -0.25239637138751836 -0.052957418101529291 0.095641006594745531 0.0085977091014666374 0.081430804909717658 -0.2733624524488224 -0.18868040755904955 0.13115104302440003
leaf_weight=24 74 38 24 30 54 32 20 28 26 55 35 21 22 63 21 37 35 27 27 107 35 31 26 30 21 106 62 127 29 23
leaf_count=24 74 38 24 30 54 32 20 28 26 55 35 21 22 63 21 37 35 27 27 107 35 31 26 30 21 106 62 127 29 23
internal_value=2.69755e-10 0.0725441 0.156063 -0.221739 0.0123807 0.254913 0.212028 0.12429 -0.155599 0.101114 -0.105414 -0.277881 0.167209 0.046368 -0.0277742 -0.0475287 -0.0340634 -0.0563292 0.2089 0.084836 -0.000589046 0.132584 -0.19587 -0.0163647 0.0363219 0.0309292 0.0498664 -0.265296 -0.218801 0.165675
internal_weight=1290 972 407 318 565 99 67 308 146 200 65 172 108 306 259 150 129 94 49 162 109 59 81 57 252 231 125 148 55 47
internal_count=1290 972 407 318 565 99 67 308 146 200 65 172 108 306 259 150 129 94 49 162 109 59 81 57 252 231 125 148 55 47
is_linear=0
shrinkage=0.05


Tree=27
num_leaves=31
num_cat=0
split_feature=0 0 0 0 0 4 4 0 4 3 3 0 2 0 2 3 3 2 2 3 3 4 2 3 4 2 4 4 3 1
split_gain=7491.01 1766.32 427.238 400.532 342.93 143.771 142.062 130.167 94.4157 197.757 87.9239 54.7707 50.8187 54.635 58.4868 50.5427 49.4712 46.196 38.8636 37.3019 36.8832 38.9853 36.0012 35.8138 34.6235 31.083 30.0801 30.0157 27.4846 22.2025
threshold=30.101468815400001 42.625263902350007 16.326924757350003 54.418284845350009 36.544603066500009 6.5000000000000009 1.5000000000000002 23.784380152700002 3.5000000000000004 2155.471004000367 3456.687609684684 34.357638483400002 0.77108211551685113 39.340894396250008 0.51438481343399378 1215.2013073038963 42602.816108143532 0.60558587164013888 0.46009753328136244 20661.800887829719 2325.3451186641564 16.000000000000004 0.53767392356218668 2211.8684890252266 16.000000000000004 0.57649694863810708 7.5000000000000009 16.000000000000004 1909.2269054758897 -85.775645580849996
decision_type=2 2 2 2 2 2 2 2 2 2 2 2 2 2 2 2 2 2 2 2 2 2 2 2 2 2 2 2 2 2
left_child=2 4 16 6 11 25 18 19 -8 27 -9 15 13 14 -6 -2 -1 -11 -3 23 -17 -22 26 -4 -24 -5 -13 -10 -15 -29
right_child=1 3 7 5 12 -7 8 10 9 17 -12 22 -14 28 -16 20 -18 -19 -20 -21 21 -23 24 -25 -26 -27 -28 29 -30 -31
leaf_value=-0.26131736792269206 -0.011844103878135221 0.14869748717173933 -0.16811217730109757 0.35895394054443941 0.048279820044885756 0.17386488688311408 0.013853435116735372 -0.06099998702464457 0.11407777830477683 0.15525610379874707 -0.18743641268461944 0.058237233216112308 0.12291747873479671 0.054460143602412685 -0.010340636563689812 -0.1184791574190403 -0.34420888423919682 0.25551535078772791 0.23039331128317359 -0.13091293945908547 -0.089761661075883445 -0.0031113794147968293 -0.06639835501710574 -0.23328184229987012 0.0063319384327365294 0.27481742898623146 -0.017241154069250281 0.041924592258189536 0.10400363166589995 0.1009394032135606
leaf_weight=126 57 24 37 23 111 28 22 44 93 20 20 33 22 115 69 29 21 27 37 21 27 25 30 49 36 21 22 34 37 30
leaf_count=126 57 24 37 23 111 28 22 44 93 20 20 33 22 115 69 29 21 27 37 21 27 25 30 49 36 21 22 34 37 30
internal_value=-4.75516e-10 0.0689169 -0.210652 0.156992 0.017336 0.262435 0.13054 -0.156917 0.112264 0.122877 -0.100511 -0.0263855 0.0493243 0.0444476 0.0258086 -0.0479156 -0.273159 0.212852 0.198251 -0.190655 -0.0732993 -0.0481029 -0.00183039 -0.205244 -0.0267273 0.318798 0.0280459 0.0959417 0.0665201 0.0695878
internal_weight=1290 972 318 359 613 72 287 171 226 204 64 259 354 332 180 138 147 47 61 107 81 52 121 86 66 44 55 157 152 64
internal_count=1290 972 318 359 613 72 287 171 226 204 64 259 354 332 180 138 147 47 61 107 81 52 121 86 66 44 55 157 152 64
is_linear=0
shrinkage=0.05


Tree=28
num_leaves=31
num_cat=0
split_feature=0 0 0 0 1 0 3 2 2 4 1 4 4 2 0 3 2 0 0 3 4 3 3 2 2 0 1 4 3 2
split_gain=6760.69 1720.02 420.937 301.815 292.1 132.139 150.109 101.269 112.55 73.6267 63.8857 60.3699 57.9744 55.2449 50.7138 37.5372 47.6755 37.4257 55.7071 50.0548 36.9695 36.3547 31.5172 28.2589 31.104 27.2192 30.7504 38.09 37.5803 28.272
threshold=27.963129922200004 41.57483186595001 51.766054409150009 35.713930299400012 -92.011703236799988 55.169829831250006 3726.3607526100473 0.59007846008612586 0.76837976795904195 7.5000000000000009 -92.457450562449992 4.5000000000000009 1.5000000000000002 0.91181767136673486 46.372082382050003 2422.0383472366552 0.38546293710206736 21.289915362050003 18.933194837150001 2546.2296371717398 6.5000000000000009 2211.8684890252266 869.71439866889932 0.36506123982095856 0.47349204224399682 38.564003662250009 -89.26404275874998 10.500000000000002 1257.5223633729051 0.45728274500422122
decision_type=2 2 2 2 2 2 2 2 2 2 2 2 2 2 2 2 2 2 2 2 2 2 2 2 2 2 2 2 2 2
left_child=4 3 7 9 17 6 22 11 14 20 -11 23 -5 -6 -9 16 -12 18 -1 -19 21 -2 -4 -3 -25 29 27 -27 -28 -14
right_child=1 2 5 12 13 -7 -8 8 -10 10 15 -13 25 -15 -16 -17 -18 19 -20 -21 -22 -23 -24 24 -26 26 28 -29 -30 -31
leaf_value=-0.10866153210401536 -0.00087729968568857992 0.098033968073626354 0.11370949375218359 0.085909909078920335 -0.24234010614454748 0.32738542184233665 0.30183307450750602 0.16172104123979808 0.068818921968340871 -0.1003439925800733 -0.0054223832343855216 0.080916011503705865 0.038138900507862367 -0.32411952316761017 0.26811668887024837 0.023598785001946534 -0.090570396416587762 -0.069358605623245237 -0.20930226810953836 -0.16515377779801688 0.051702802977524699 -0.07756441477686167 0.19413984957195463 0.20091737022866374 0.11565966799855232 0.045685376908357556 0.023695107714997402 -0.035868073322556239 0.090151744823043167 -0.00833327430817816
leaf_weight=20 68 30 29 54 148 26 23 24 20 54 31 170 60 24 21 23 35 25 44 30 24 20 21 23 20 41 36 22 52 72
leaf_count=20 68 30 29 54 148 26 23 24 20 54 31 170 60 24 21 23 35 25 44 30 24 20 21 23 20 41 36 22 52 72
internal_value=4.25137e-10 0.0617781 0.140904 0.00737914 -0.212084 0.230593 0.196119 0.112075 0.16751 -0.0336625 -0.0574396 0.0972471 0.0384344 -0.253751 0.211372 -0.0314077 -0.0505766 -0.151858 -0.177852 -0.121611 -0.00330426 -0.0183062 0.14749 0.135278 0.161263 0.0293755 0.0438736 0.0172064 0.0629649 0.0127904
internal_weight=1290 999 407 592 291 99 73 308 65 255 143 243 337 172 45 89 66 119 64 55 112 88 50 73 43 283 151 63 88 132
internal_count=1290 999 407 592 291 99 73 308 65 255 143 243 337 172 45 89 66 119 64 55 112 88 50 73 43 283 151 63 88 132
is_linear=0
shrinkage=0.05


Tree=29
num_leaves=31
num_cat=0
split_feature=0 0 0 0 0 4 3 0 4 3 3 0 1 2 3 2 4 2 2 4 1 2 3 2 0 1 3 2 4 2
split_gain=6110.07 1442.99 351.817 326 279.527 125.987 121.602 98.2406 90.6482 68.6866 66.2519 60.8909 53.85 42.3451 42.2047 41.7531 42.0625 38.781 37.9439 34.0178 38.8821 33.8044 31.6333 29.8152 27.5825 27.0388 23.9547 29.7413 22.363 30.7428
threshold=30.101468815400001 42.625263902350007 17.717407561500004 51.766054409150009 37.521647935600008 1.5000000000000002 3202.4277353103303 55.169829831250006 7.5000000000000009 2155.471004000367 3202.4277353103303 34.357638483400002 -85.882539991749979 0.77108211551685113 1215.2013073038963 0.65151060866914656 4.5000000000000009 0.46009753328136244 0.53539364077482521 17.500000000000004 -92.457450562449992 0.66025289793313224 2723.9170551782959 0.78792775342428889 23.784380152700002 -77.799156068599984 1099.5721786144477 0.46559706127978856 16.000000000000004 0.12192532543286862
decision_type=2 2 2 2 2 2 2 2 2 2 2 2 2 2 2 2 2 2 2 2 2 2 2 2 2 2 2 2 2 2
left_child=2 4 12 5 11 17 7 -5 -4 28 -11 14 -1 15 -2 16 -6 -3 19 20 -13 -16 -20 -23 -10 26 -18 -28 29 -7
right_child=1 3 8 6 13 9 -8 -9 24 10 -12 18 -14 -15 21 -17 25 -19 22 -21 -22 23 -24 -25 -26 -27 27 -29 -30 -31
leaf_value=-0.22355103474810611 -0.010859921947121621 0.13421751285592717 -0.05402991504504763 0.14127136751058253 0.0765620229825274 0.14101719588041306 0.29924688749015332 0.2735802137851715 -0.17027682839082434 0.1968587221843856 0.082330832792365027 0.10409760236740113 -0.29036523348245863 0.11655925178811664 -0.11831146245417389 -0.021616966633693033 0.0064795973366253996 0.22014121593072497 -0.042657965568027333 -0.020738458518798537 0.015746764658075393 -0.0054899808466434483 0.030597549881786108 -0.077879488851987963 -0.11909630481153727 0.085673722754354073 0.088930669803974335 0.026208799285075021 0.054421727478814623 0.076544128434443984
leaf_weight=133 57 24 29 47 90 25 32 20 77 28 23 20 39 21 23 23 73 29 56 26 33 25 20 33 40 23 27 63 60 71
leaf_count=133 57 24 29 47 90 25 32 20 77 28 23 20 39 21 23 23 73 29 56 26 33 25 20 33 40 23 27 63 60 71
internal_value=4.2899e-10 0.0622413 -0.190247 0.141848 0.0156199 0.112447 0.219063 0.180767 -0.133165 0.0948358 0.145209 -0.0196654 -0.238701 0.0479279 -0.0438221 0.0431076 0.0485013 0.181232 0.00184194 0.0261063 0.0490867 -0.0670177 -0.0233802 -0.0466771 -0.152779 0.0349236 0.0277625 0.0450254 0.0783677 0.093334
internal_weight=1290 972 318 359 613 260 99 67 146 207 51 293 172 320 138 299 276 53 155 79 53 81 76 58 117 186 163 90 156 96
internal_count=1290 972 318 359 613 260 99 67 146 207 51 293 172 320 138 299 276 53 155 79 53 81 76 58 117 186 163 90 156 96
is_linear=0
shrinkage=0.05


Tree=30
num_leaves=31
num_cat=0
split_feature=0 0 0 0 0 3 4 4 4 2 3 2 4 2 0 3 2 3 0 3 2 3 2 4 1 1 4 3 2 3
split_gain=5514.34 1303.78 389.655 318.216 218.209 155.552 96.3066 72.2502 125.528 64.5934 83.7376 62.3375 61.3207 57.8621 54.954 53.8908 52.5039 39.8305 39.0393 38.0898 34.2444 31.8164 34.9669 30.701 35.0911 30.6355 29.4813 35.2265 26.9073 22.9077
threshold=30.101468815400001 44.75990299055001 37.521647935600008 16.326924757350003 55.169829831250006 3900.1087147529902 7.5000000000000009 1.5000000000000002 3.5000000000000004 0.36506123982095856 3182.2181720046774 0.19168947557142271 4.5000000000000009 0.77108211551685113 34.357638483400002 2410.7436062157144 0.42196294813356255 42602.816108143532 41.57483186595001 1215.2013073038963 0.53539364077482521 2325.3451186641564 0.74339081392786011 17.500000000000004 -92.457450562449992 -110.20338894049998 11.500000000000002 2070.5995644331683 0.65467906843601564 1824.2626821589567
decision_type=2 2 2 2 2 2 2 2 2 2 2 2 2 2 2 2 2 2 2 2 2 2 2 2 2 2 2 2 2 2
left_child=3 2 14 17 5 9 -5 16 -9 25 28 -8 -10 18 19 -13 -4 -1 -14 -2 23 -21 -23 24 -16 -3 -22 -28 -11 -20
right_child=1 4 7 6 -6 -7 11 8 12 10 -12 15 13 -15 20 -17 -18 -19 29 21 26 22 -24 -25 -26 -27 27 -29 -30 -31
leaf_value=-0.22405505899399047 -0.01031692729315214 0.14828521414444998 0.074650856645570862 -0.051328419919671686 0.29704098575390303 0.24721623466860865 -0.21816334607345717 -0.075777096739038832 0.11682113921817612 0.22711341947317126 0.081674967819581862 -0.076044030204929169 0.025309634143063295 0.1204582866281271 0.098892723917961126 -0.15497932930203046 0.16594129953356018 -0.29843259028026037 0.051013621726593419 -0.10562880522218243 -0.060772785345713301 0.011597965378314257 -0.072679321654140955 -0.0197015350827804 0.014959426314541788 0.085905270811952206 -0.035437826754955146 0.052825831025838856 0.1552316830210064 0.10695980122933786
leaf_weight=126 57 26 63 29 26 31 28 20 34 30 23 29 176 24 20 85 21 21 77 29 30 20 32 26 33 81 26 20 23 24
leaf_count=126 57 26 63 29 26 31 28 20 34 30 23 29 176 24 20 85 21 21 77 29 30 20 32 26 33 81 26 20 23 24
internal_value=4.08627e-11 0.0591293 0.0259711 -0.180735 0.160262 0.143643 -0.13436 0.0557739 0.0459069 0.126098 0.161345 -0.151318 0.0531716 0.045982 -0.0186821 -0.134899 0.0974735 -0.23468 0.0395292 -0.041631 0.00174984 -0.0636668 -0.040265 0.024801 0.0466324 0.101063 -0.0222112 0.00293768 0.195919 0.0643078
internal_weight=1290 972 732 318 240 214 171 439 355 183 76 142 335 301 293 114 84 147 277 138 155 81 52 79 53 107 76 46 53 101
internal_count=1290 972 732 318 240 214 171 439 355 183 76 142 335 301 293 114 84 147 277 138 155 81 52 79 53 107 76 46 53 101
is_linear=0
shrinkage=0.05


Tree=31
num_leaves=31
num_cat=0
split_feature=0 0 0 0 0 2 3 0 3 2 4 3 4 4 2 0 2 4 1 3 3 0 4 4 3 2 4 4 3 4
split_gain=4984.68 1033.16 553.655 252.564 189.63 136.852 107.686 86.9653 65.0321 58.95 56.223 122.467 110.656 47.2237 56.2673 42.844 61.2838 100.274 39.5933 67.6039 38.3491 34.0436 53.8997 31.236 29.7872 28.4493 27.3376 27.5869 23.6638 22.4566
threshold=32.071318590150007 44.879020764200007 21.289915362050003 38.564003662250009 55.169829831250006 0.36506123982095856 3456.687609684684 14.189225819650002 17725.593093056705 0.51438481343399378 3.5000000000000004 3726.3607526100473 1.0000000180025095e-35 1.5000000000000002 0.42196294813356255 26.432810063100003 0.49562811914865562 11.500000000000002 -93.84796771329998 1924.9933636720277 3107.2113979332121 34.660349168100005 22.500000000000004 23.500000000000004 2641.6670939292485 0.53767392356218668 10.500000000000002 5.5000000000000009 2981.0672989227228 20.500000000000004
decision_type=2 2 2 2 2 2 2 2 2 2 2 2 2 2 2 2 2 2 2 2 2 2 2 2 2 2 2 2 2 2
left_child=2 3 7 9 5 26 15 -1 20 21 12 -12 -7 14 -5 -4 17 -17 24 -20 23 -2 -23 -9 25 -15 27 -3 -11 -28
right_child=1 4 6 13 -6 10 -8 8 -10 28 11 -13 -14 18 -16 16 -18 -19 19 -21 -22 22 -24 -25 -26 -27 29 -29 -30 -31
leaf_value=-0.24522087818955721 -0.016962672663586482 0.089924310900270948 -0.10877102936307591 0.069469671743793482 0.28218893729723415 0.21055781579128019 -0.14791614165235509 -0.19944508904996128 -0.097379008361271446 -0.032107128152593728 0.15550103634595872 0.31322276532649995 0.061314090438511062 0.026464997886274107 0.16498823613815367 -0.0097334248531195863 0.032520763576030731 -0.1452257743740285 0.047150206535321766 0.11772837015859626 -0.21124083790514203 0.052257362753152847 -0.036519293558029901 -0.12015168181172126 -0.026527426205575466 0.092029092922097155 0.046842575515620412 0.16669392192905599 0.014447802603244781 0.11161410355049631
leaf_weight=73 42 25 24 58 26 27 38 23 21 124 32 20 23 78 21 36 25 22 122 47 90 92 21 27 20 21 32 22 35 23
leaf_count=73 42 25 24 58 26 27 38 23 21 124 32 20 23 78 21 36 25 22 122 47 90 92 21 27 20 21 32 22 35 23
internal_value=1.95325e-10 0.0633949 -0.152382 0.0324502 0.155018 0.13881 -0.0756115 -0.199953 -0.179428 -0.000469015 0.179762 0.216163 0.141906 0.0606155 0.0948607 -0.0499332 -0.0329199 -0.0611271 0.0512218 0.0667785 -0.191736 0.0214732 0.035759 -0.156627 0.0291288 0.0403725 0.0978575 0.125859 -0.0218592 0.0739289
internal_weight=1290 911 379 681 230 204 145 234 161 314 102 52 50 367 79 107 83 58 288 169 140 155 113 50 119 99 102 47 159 55
internal_count=1290 911 379 681 230 204 145 234 161 314 102 52 50 367 79 107 83 58 288 169 140 155 113 50 119 99 102 47 159 55
is_linear=0
shrinkage=0.05


Tree=32
num_leaves=31
num_cat=0
split_feature=0 0 0 0 0 2 3 0 3 2 4 3 4 4 2 0 2 4 1 3 3 4 0 2 4 2 1 2 3 2
split_gain=4498.68 932.43 499.674 227.939 171.141 123.509 97.1868 78.6712 57.9302 53.2024 50.7413 110.527 99.8668 42.6194 50.7812 38.6667 55.3086 90.497 35.733 61.0125 33.1581 33.0226 31.3545 30.4138 27.7669 37.3234 26.6126 21.4146 21.3566 21.3504
threshold=32.071318590150007 44.879020764200007 21.289915362050003 38.564003662250009 55.169829831250006 0.36506123982095856 3456.687609684684 15.162750013950001 17725.593093056705 0.51438481343399378 3.5000000000000004 3726.3607526100473 1.0000000180025095e-35 1.5000000000000002 0.42196294813356255 26.432810063100003 0.49562811914865562 11.500000000000002 -93.84796771329998 1924.9933636720277 3107.2113979332121 23.500000000000004 35.563818799400003 0.91181767136673486 13.500000000000002 0.63835902110002696 -110.20338894049998 0.7340511180621645 2981.0672989227228 0.12557724004574097
decision_type=2 2 2 2 2 2 2 2 2 2 2 2 2 2 2 2 2 2 2 2 2 2 2 2 2 2 2 2 2 2
left_child=2 3 7 9 5 26 15 23 20 22 12 -12 -7 14 -5 -4 17 -17 24 -20 21 -9 29 -1 25 -15 -3 -22 -11 -2
right_child=1 4 6 13 -6 10 -8 8 -10 28 11 -13 -14 18 -16 16 -18 -19 19 -21 27 -23 -24 -25 -26 -27 -28 -29 -30 -31
leaf_value=-0.20707126434730447 -0.043880754181494314 0.1366296143987431 -0.10333247904976209 0.065996187722214092 0.26807948855611569 0.20002992307698286 -0.14052033316540091 -0.18947282951811087 -0.084016964258626106 -0.030501771335031898 0.14772598584822846 0.29756162315607071 0.058248384491257049 0.023701207991689444 0.15673882557700081 -0.0092467527526120356 0.030894725158810615 -0.13796448836272412 0.044792695771082171 0.11184194970162625 -0.2435805598894755 -0.10563204797605674 0.039008826811028567 -0.27251266999678181 -0.013927753965059917 0.099960294223967058 0.078026551488590876 -0.17860082220286133 0.013725410353924548 0.016057663678358765
leaf_weight=92 24 26 24 58 26 27 38 23 20 124 32 20 23 68 21 36 25 22 122 47 21 24 92 22 30 21 76 32 35 39
leaf_count=92 24 26 24 58 26 27 38 23 20 124 32 20 23 68 21 36 25 22 122 47 21 24 92 22 30 21 76 32 35 39
internal_value=-1.03682e-10 0.0602252 -0.144763 0.0308277 0.147267 0.131869 -0.0718309 -0.189956 -0.161698 -0.000445565 0.170774 0.205355 0.13481 0.0575847 0.0901176 -0.0474366 -0.0312739 -0.0580707 0.0486608 0.0634395 -0.177235 -0.146661 0.0203995 -0.2197 0.0276724 0.0416949 0.0929646 -0.204348 -0.0207662 -0.00677602
internal_weight=1290 911 379 681 230 204 145 234 120 314 102 52 50 367 79 107 83 58 288 169 100 47 155 114 119 89 102 53 159 63
internal_count=1290 911 379 681 230 204 145 234 120 314 102 52 50 367 79 107 83 58 288 169 100 47 155 114 119 89 102 53 159 63
is_linear=0
shrinkage=0.05


Tree=33
num_leaves=31
num_cat=0
split_feature=0 0 0 0 0 4 4 4 3 4 2 3 2 2 4 1 4 0 2 2 2 3 4 0 2 4 1 3 4 1
split_gain=4063.63 981.149 237.415 220.555 182.562 98.7909 85.7718 77.9317 119.295 72.2268 50.2561 44.7117 41.4194 36.9187 34.4322 65.8951 58.1416 32.6866 32.0136 33.1581 31.9886 28.2853 27.2654 23.029 22.1166 22.0669 21.5848 21.335 29.8126 20.1747
threshold=30.101468815400001 42.625263902350007 16.326924757350003 54.418284845350009 37.521647935600008 6.5000000000000009 1.5000000000000002 3.5000000000000004 2155.471004000367 7.5000000000000009 0.19168947557142271 2410.7436062157144 0.38546293710206736 0.52154657200405297 16.000000000000004 -92.011703236799988 8.5000000000000018 11.795549405250002 0.77108211551685113 0.65151060866914656 0.60558587164013888 2942.9396139097494 4.5000000000000009 35.563818799400003 0.46009753328136244 16.000000000000004 -77.799156068599984 1099.5721786144477 20.500000000000004 -85.775645580849996
decision_type=2 2 2 2 2 2 2 2 2 2 2 2 2 2 2 2 2 2 2 2 2 2 2 2 2 2 2 2 2 2
left_child=2 4 17 6 12 21 24 -8 25 -4 -11 -12 23 -14 16 -16 -15 -1 19 22 -10 -5 -6 -2 -3 -9 27 -24 -29 -27
right_child=1 3 9 5 18 -7 7 8 20 10 11 -13 13 14 15 -17 -18 -19 -20 -21 -22 -23 26 -25 -26 29 -28 28 -30 -31
leaf_value=-0.25512163539727534 -0.009166536873645997 0.11200336125524094 -0.043187411078091327 0.20127906718037347 0.061632936178810077 0.12122747674584389 -0.0068364414979111068 0.086843839363865971 0.11416824759915473 -0.18979833256453277 -0.061427923677296471 -0.13332717269659042 -0.096528959423303612 -0.017790614449906917 0.067030538991093638 -0.031732876605370587 -0.11968483130137127 -0.19133127399576388 0.098099875663008013 -0.023445039728413459 0.19759777213136356 0.28145683868364857 0.0016254679159554719 0.036508383490145208 0.17363271809913017 0.022327318612266989 0.073452945183152749 0.020649213626077682 0.085724152748783436 0.078582579890886947
leaf_weight=24 89 24 29 22 90 28 22 93 20 28 29 85 20 42 24 57 21 123 21 23 27 22 73 40 37 34 23 66 24 30
leaf_count=24 89 24 29 22 90 28 22 93 20 28 29 85 20 42 24 57 21 123 21 23 27 22 73 40 37 34 23 66 24 30
internal_value=-2.22651e-10 0.0507589 -0.15515 0.116402 0.0123156 0.194647 0.0967724 0.0825716 0.0922137 -0.115094 -0.129779 -0.115037 -0.0162003 -0.0328732 -0.0240321 -0.00246964 -0.0517554 -0.201746 0.0384254 0.0342342 0.162096 0.241368 0.0390408 0.00499623 0.149385 0.0712935 0.0281092 0.021711 0.0380025 0.048697
internal_weight=1290 972 318 359 613 72 287 226 204 171 142 114 293 164 144 81 63 147 320 299 47 44 276 129 61 157 186 163 90 64
internal_count=1290 972 318 359 613 72 287 226 204 171 142 114 293 164 144 81 63 147 320 299 47 44 276 129 61 157 186 163 90 64
is_linear=0
shrinkage=0.05


Tree=34
num_leaves=31
num_cat=0
split_feature=0 0 0 0 0 3 3 2 4 0 3 2 4 4 4 2 1 3 3 3 4 0 4 3 2 1 3 2 2 3
split_gain=3675.42 767.508 404.266 182.71 145.001 99.9447 83.4391 82.2298 72.3146 66.3892 50.7634 45.6727 43.3742 36.7452 35.3654 43.7636 31.9922 51.5314 30.177 28.9328 28.2668 43.7283 26.4744 24.7783 24.218 19.1803 18.9497 18.8843 18.204 16.6386
threshold=32.071318590150007 44.879020764200007 21.289915362050003 38.564003662250009 55.169829831250006 3900.1087147529902 906.51842716060912 0.49562811914865562 13.500000000000002 14.189225819650002 17725.593093056705 0.51438481343399378 6.5000000000000009 3.5000000000000004 1.5000000000000002 0.42196294813356255 -93.84796771329998 1924.9933636720277 3107.2113979332121 2641.6670939292485 22.500000000000004 34.660349168100005 23.500000000000004 2410.7436062157144 0.53767392356218668 -79.959265878349981 2981.0672989227228 0.38957533978316178 0.91181767136673486 2773.8093013830985
decision_type=2 2 2 2 2 2 2 2 2 2 2 2 2 2 2 2 2 2 2 2 2 2 2 2 2 2 2 2 2 2
left_child=2 3 9 11 5 12 -4 -8 -9 28 18 20 13 23 15 -5 19 -18 22 24 21 -2 -11 -3 27 -23 -13 -16 -1 -19
right_child=1 4 6 14 -6 -7 7 8 -10 10 -12 26 -14 -15 16 -17 17 29 -20 -21 -22 25 -24 -25 -26 -27 -28 -29 -30 -31
leaf_value=-0.19518264692563278 -0.015651769670657813 0.13651055688304561 -0.010478784980133493 0.058963390661339314 0.2446101111861376 0.20190887278126135 -0.15884759036764023 -0.12166588428829397 -0.016346308789574184 -0.17271437930024192 -0.081073655294520527 -0.028232422508599777 0.082257908983060068 0.17822296914777586 0.041962424388274237 0.14320300217895282 0.040438728309885347 0.12766289421253735 -0.18174128168159062 -0.03111981049180031 -0.032072660974834279 0.059384510550700445 -0.099714499270474474 0.063643289953470225 0.082474265566893995 0.0049902234049070448 0.013428083759333407 -0.0083109713835461483 -0.25033995651063468 0.067492748023942117
leaf_weight=52 40 28 47 58 26 31 31 28 39 23 21 124 97 28 47 21 122 27 90 20 23 71 27 20 21 21 35 31 21 20
leaf_count=52 40 28 47 58 26 31 31 28 39 23 21 124 97 28 47 21 122 27 90 20 23 71 27 20 21 21 35 31 21 20
internal_value=-3.18924e-11 0.0544364 -0.130848 0.0277652 0.133406 0.119233 -0.0652478 -0.0915146 -0.0603605 -0.171498 -0.153565 -0.000234027 0.104419 0.132703 0.0517209 0.0813562 0.0435918 0.0575756 -0.164439 0.0237324 0.0190797 0.0279926 -0.133294 0.106149 0.0348137 0.0469684 -0.0190619 0.021982 -0.21105 0.102059
internal_weight=1290 911 379 681 230 204 145 98 67 234 161 314 173 76 367 79 288 169 140 119 155 132 50 48 99 92 159 78 73 47
internal_count=1290 911 379 681 230 204 145 98 67 234 161 314 173 76 367 79 288 169 140 119 155 132 50 48 99 92 159 78 73 47
is_linear=0
shrinkage=0.05


Tree=35
num_leaves=31
num_cat=0
split_feature=0 0 0 0 0 4 3 4 4 2 3 3 3 4 4 3 1 4 0 4 3 3 2 4 2 4 2 2 2 2
split_gain=3318.56 805.499 194.286 185.44 148.773 83.8229 81.469 158.857 58.9487 42.7262 41.213 37.1738 62.5698 33.1254 40.9946 68.5439 50.6876 32.5339 31.5182 28.086 27.9867 26.6635 24.2744 17.803 17.3852 16.2077 25.8511 15.0277 23.8254 17.3647
threshold=30.101468815400001 42.625263902350007 16.326924757350003 51.766054409150009 35.713930299400012 1.5000000000000002 869.71439866889932 3.5000000000000004 7.5000000000000009 0.19168947557142271 2410.7436062157144 2155.471004000367 3202.4277353103303 7.5000000000000009 11.500000000000002 2410.7436062157144 -92.011703236799988 1.0000000180025095e-35 39.340894396250008 6.5000000000000009 36360.942242671626 2211.8684890252266 0.46009753328136244 3.5000000000000004 0.85267575677649399 16.000000000000004 0.14382322558721039 0.1968147776762563 0.51438481343399378 0.72600586265903377
decision_type=2 2 2 2 2 2 2 2 2 2 2 2 2 2 2 2 2 2 2 2 2 2 2 2 2 2 2 2 2 2
left_child=2 4 20 5 13 22 -5 -8 -4 -10 -11 25 -13 19 -15 16 -16 -6 23 21 -1 -2 -3 -19 -12 26 -7 -25 -29 -30
right_child=1 3 8 6 17 11 7 -9 9 10 24 12 -14 14 15 -17 -18 18 -20 -21 -22 -23 -24 27 -26 -27 -28 28 29 -31
leaf_value=-0.17108064586746283 0.0044429378377066715 0.10208310802311947 -0.039010066616124127 0.10963653207006979 0.090506272088913695 0.11200697038036128 0.1099180741952016 0.27630758304148911 -0.17257888615131378 -0.052176574232249431 -0.13456811247363923 0.15605959006186043 0.044759779374884526 -0.10138590633869171 -0.093167876230703828 0.035140729229897263 -0.011971765053458512 -0.026860663481056691 0.043301944614718139 0.04943626433934855 -0.22456100833031442 -0.063139297254383567 0.17006253887867107 -0.018821366001730382 -0.082939769496971918 0.036306735376516984 0.053620827577209901 0.046809111053452777 -0.0042752711474895481 0.047564824954384854
leaf_weight=116 54 24 29 41 21 26 26 32 28 29 63 28 23 21 37 33 40 24 158 23 31 20 29 23 22 60 70 68 70 21
leaf_count=116 54 24 29 41 21 26 26 32 28 29 63 28 23 21 37 33 40 24 158 23 31 20 29 23 22 60 70 68 70 21
internal_value=5.00676e-11 0.0458702 -0.140207 0.105348 0.0110376 0.0831731 0.163584 0.201719 -0.103971 -0.117238 -0.103645 0.0688077 0.105866 -0.0209709 -0.0373705 -0.0251494 -0.0509881 0.0299933 0.0265021 0.00117698 -0.182359 -0.0138225 0.139279 0.0136168 -0.121205 0.0566926 0.0694337 0.0189545 0.0244189 0.00768783
internal_weight=1290 972 318 359 613 260 99 58 171 142 114 207 51 228 131 110 77 385 364 97 147 74 53 206 85 156 96 182 159 91
internal_count=1290 972 318 359 613 260 99 58 171 142 114 207 51 228 131 110 77 385 364 97 147 74 53 206 85 156 96 182 159 91
is_linear=0
shrinkage=0.05


Tree=36
num_leaves=31
num_cat=0
split_feature=0 0 0 0 0 4 4 4 0 4 2 3 0 4 4 3 2 1 4 4 0 3 3 0 4 3 2 0 3 2
split_gain=2995 726.963 175.343 170.428 134.268 105.22 69.3858 178.835 87.5831 53.2012 38.5603 37.1947 31.3718 29.8957 36.9976 61.8609 48.1178 79.6846 29.3619 28.5406 31.1523 29.8242 32.2083 25.6782 25.3476 24.0638 23.3951 22.4557 30.0984 15.6902
threshold=30.101468815400001 42.625263902350007 16.326924757350003 55.169829831250006 35.713930299400012 6.5000000000000009 3.5000000000000004 1.5000000000000002 46.824592585800012 7.5000000000000009 0.19168947557142271 2410.7436062157144 46.372082382050003 7.5000000000000009 11.500000000000002 2410.7436062157144 0.2597579290766398 -92.011703236799988 1.0000000180025095e-35 23.500000000000004 38.564003662250009 2723.9170551782959 2001.3096920070927 11.795549405250002 6.5000000000000009 2211.8684890252266 0.65151060866914656 46.372082382050003 1257.5223633729051 0.85267575677649399
decision_type=2 2 2 2 2 2 2 2 2 2 2 2 2 2 2 2 2 2 2 2 2 2 2 2 2 2 2 2 2 2
left_child=2 4 23 5 13 6 7 12 -8 -4 -11 -12 -3 24 -15 16 -16 -18 -6 20 26 22 -22 -1 25 -2 -20 -7 -29 -13
right_child=1 3 9 -5 18 27 8 -9 -10 10 11 29 -14 14 15 -17 17 -19 19 -21 21 -23 -24 -25 -26 -27 -28 28 -30 -31
leaf_value=-0.22054954022169115 0.0042207906505575881 0.10733616235000748 -0.037059562781761438 0.22337041440634775 0.085980956895010813 0.046539997476265658 0.11475090930691444 -0.0051908389484930425 0.23899939435979595 -0.16394993928926332 -0.049567745112139606 -0.12783970828094179 0.17583261998370292 -0.096316611482983538 0.0053487154448197951 0.033383693656122142 -0.15165954345748539 -0.023770439766090494 0.012523843591602949 0.083242110311985029 0.031625892550107983 -0.021787795559926468 0.091427540865082008 -0.16400991935070938 0.046964452869218326 -0.05998233245802112 -0.042242635941753787 0.063461045920848849 0.1297132706269622 -0.078792784938758076
leaf_weight=24 54 35 29 26 21 91 37 31 23 28 29 63 32 21 27 33 21 29 104 20 168 22 26 123 23 20 24 60 24 22
leaf_count=24 54 35 29 26 21 91 37 31 23 28 29 63 32 21 27 33 21 29 104 20 168 22 26 123 23 20 24 60 24 22
internal_value=-1.53073e-10 0.0435767 -0.133197 0.10008 0.0104857 0.090454 0.120033 0.0941071 0.162379 -0.0987727 -0.111376 -0.0984632 0.140051 -0.0199224 -0.035502 -0.023892 -0.0484387 -0.0774839 0.0284936 0.025177 0.0218011 0.033384 0.0396405 -0.173241 0.00111813 -0.0131314 0.00225513 0.0637481 0.0823903 -0.115145
internal_weight=1290 972 318 359 613 333 158 98 60 171 142 114 67 228 131 110 77 50 385 364 344 216 194 147 97 74 128 175 84 85
